{"Layer0Checkpoint":{"weights":[0.041023407,0.04048682,-0.039953772,0.0039905515,-0.057534028,-0.0033373295,-0.018061632,-0.030248715,0.00080407754,0.03484043,-0.08094873,0.101118274,-0.10926141,-0.033989437,-0.034153216,-0.051024586,0.06623189,-0.08534331,-0.01878973,0.06344621,-0.020817636,-0.057359125,0.12387573,0.050235774,0.06255878,0.08538352,-0.044295143,-0.04565943,0.013242466,-0.029259635,0.10893166,-0.016154904,0.037672795,-0.038586814,-0.008018893,-0.036320712,0.050617464,-0.081459746,0.12456881,-0.0038687983,-0.37590384,-0.3035946,-0.32540098,-0.30490634,-0.0069708764,-0.13008143,-0.13979508,-0.13543181,-0.051903367,-0.10669254,-0.09143865,0.10923368,0.012543234,-0.050667763,0.04072772,-0.0024628323,0.03321586,-0.024762748,-0.100339964,0.11119785,-0.20827715,0.07018998,0.08054515,-0.043867614,0.2966653,0.31116456,0.25822473,0.24891733,0.3581618,-0.08794964,0.19171472,-0.16270551,-0.11663414,-0.13771664,-0.079007305,-0.28945372,-0.1399905,0.27740732,0.16945897,0.26590925,0.19259124,0.16862676,0.016438082,-0.057791002,-0.017563784,0.021185342,-0.28422782,0.07507506,-0.1506354,-0.0706455,0.23566176,0.034272265,-0.04817001,-0.01945072,0.060286436,0.1605877,-0.011016422,-0.2669853,-0.10876169,-0.104739614,0.06727526,0.022110295,-0.25246757,-0.1942056,-0.32068112,0.07343967,0.14275074,-0.27318585,0.11657253,0.32661405,0.2960121,-0.06052235,-0.03186601,-0.03966212,-0.34554222,-0.20957455,-0.123949416,-0.114230976,0.2276278,0.15151379,-0.018870305,-0.04106119,-0.048441857,0.15293704,0.11762707,-0.05106589,-0.057990864,-0.08007769,-0.10039678,0.15901949,0.14329652,-0.111941084,0.072529644,-0.00085334736,-0.023188306,-0.17800973,0.17031291,0.21903616,-0.4251636,-0.09093,-0.007206025,-0.003570679,0.034771584,-0.3403442,-0.25102207,-0.08593965,-0.025310233,0.120606765,0.2703659,0.123300344,0.14186753,0.26590064,0.44108084,0.3200611,0.20388643,0.25049758,0.23267855,0.075832814,-0.10826112,-0.13262059,-0.061774474,-0.12832303,-0.08334447,-0.15757361,-0.024270145,0.17974223,-0.26462752,0.39679807,0.015966333,-0.043409042,0.20433643,-0.123556964,-0.20468858,-0.190294,-0.098828465,0.17722815,-0.045766003,0.111066386,0.20743802,0.30007848,0.45519558,0.2456365,0.24531887,0.17586024,0.06467428,0.08215677,-0.0049521816,-0.09610815,-0.155302,0.23059438,-0.03750657,-0.32171237,-0.34129858,-0.10630465,-0.15177087,0.02079044,0.0037145708,0.14233373,0.38952172,-0.08411881,-0.18717621,-0.17673214,0.26272738,0.31866604,0.20157973,0.19945627,0.26637688,0.20630006,0.108416595,0.11436848,0.08582198,-0.13363743,-0.04264137,-0.067264035,0.0004971089,-0.058394663,-0.038341716,0.09221799,0.11044332,-0.27724725,-0.49527523,-0.21453072,-0.19474496,0.10523998,-0.31518066,0.24653803,0.5391013,-0.030448107,-0.06244932,-0.04912982,0.16365418,0.26276228,0.14317676,0.1387348,0.014260473,0.20018475,-0.021174008,-0.037519176,-0.03618265,-0.1545969,-0.171027,-0.17629056,-0.16342805,-0.12145207,-0.17433253,-0.115590125,-0.10902416,-0.034359217,-0.46206105,-0.48945704,-0.24059692,-0.32144618,0.17107637,0.24692428,0.44376835,0.36121544,-0.09173662,0.11377809,0.053559184,0.15976241,0.005782193,0.03918448,-0.056489117,-0.0650358,0.16140157,-0.04232105,-0.056608234,-0.06442267,-0.12887262,-0.19406681,-0.005466445,-0.042580754,0.03389098,-0.036962517,-0.038225155,-0.1459208,-0.56865144,-0.27314615,0.046497863,0.29555663,0.25101882,0.13489115,0.0883675,0.18056713,-0.031116216,0.12657683,0.3612846,0.25251386,-0.11199249,-0.02767813,-0.14769226,-0.019064698,-0.14115372,-0.21760671,-0.2640222,-0.4039323,-0.25368866,-0.117276214,0.0686253,0.11656763,0.08041694,0.12360055,0.033671476,-0.17765261,-0.2656531,-0.08523777,0.06408277,0.22942464,0.064291246,0.1866791,0.20297119,0.029699465,0.11200255,0.27018028,0.33292168,0.1878531,0.17073493,0.14073302,0.14227028,0.1425382,0.122817844,-0.38255596,-0.43188632,-0.39901718,-0.41044027,-0.299516,-0.059583712,0.24878104,0.16746654,0.074539304,0.116345726,-0.023139698,-0.54125315,-0.21877474,-0.48190686,-0.066834435,0.12232312,0.17040794,0.17198692,0.1714593,-0.09333226,0.07179505,0.07651519,0.08821995,0.3277381,0.26121157,0.23548067,0.28032616,0.08270494,-0.14338593,-0.5254288,-0.390969,-0.089929774,-0.19363448,0.0034234433,0.10826155,0.13458724,0.16817898,0.112906635,0.038452215,0.2255916,0.19171616,0.064476684,0.36114153,-0.09593917,0.063649274,0.35236964,0.106100306,-0.15772843,0.07195469,-0.0152512565,0.16505636,0.2647266,0.33500004,0.503316,0.25004947,-0.02898949,-0.1844655,-0.26336926,-0.10557435,0.053692907,0.09735485,0.0662145,-0.012560634,0.2461506,0.21055718,-0.009639671,-0.01960204,0.4273359,0.35200927,0.38448465,0.22900659,-0.15947203,0.0660955,0.15659383,0.37209284,0.16817829,-0.04756938,0.018753022,0.28547338,0.1002184,0.30071545,0.46849295,0.18423593,-0.114143796,-0.113329396,-0.03734761,0.19628999,0.16152471,0.14636022,0.1692413,0.17161678,-0.10825272,-0.047067367,0.0867523,-0.074922934,-0.0044857715,0.14729393,0.34374675,0.19441792,-0.07788899,-0.078412265,-0.2323812,0.38389555,-0.3382398,-0.15775451,0.10752889,0.23154195,0.05679732,0.20508471,0.37437522,0.15118435,-0.018765224,0.20406103,0.32870445,0.5036742,0.2843359,0.15889007,0.058540583,0.08352799,-0.25838694,-0.107931495,-0.12808539,-0.23962733,-0.2171693,0.12167651,0.44075212,0.24060829,0.20311457,-0.12451214,-0.3981654,-0.014659255,-0.18928888,-0.20694064,-0.12928323,0.09021439,0.25464955,0.2694053,0.37964317,0.23057796,0.4422328,0.63146913,0.5141169,0.3283419,0.2175701,0.23899026,0.09816632,0.0075407755,-0.19294295,0.0849448,-0.034407455,-0.13714151,-0.32164842,0.35817876,0.56131136,0.24590327,-0.024492012,-0.12812175,0.001383692,-0.266738,-0.053749133,-0.27884495,-0.17105278,-0.11661143,0.04921899,0.21027806,0.4375746,0.38382295,0.6567386,0.71190107,0.20714691,0.08449058,-0.07276865,-0.042912714,0.1315339,-0.006404799,-0.024719683,0.18624336,0.008693732,-0.15483284,-0.13248059,0.72964907,0.45810798,-0.18081707,0.25986472,-0.05826212,-0.053917028,0.017652538,0.034475822,-0.17001916,-0.30866525,-0.2722033,-0.20714499,-0.051018555,0.07778945,0.19250506,0.42520896,0.36761758,0.106273904,-0.13118395,-0.072948195,0.120809585,0.24823809,0.15183425,0.13335174,0.14689143,0.08103707,0.19915251,0.21553367,0.5326523,0.37019178,0.08501214,-0.088638104,0.20507386,0.008237615,0.014767305,0.20753612,-0.17908497,-0.29805818,-0.20693797,-0.32106525,-0.23732033,-0.17861421,-0.081216596,-0.017633943,-0.075444676,-0.090676434,-0.13735649,-0.2275297,-0.019776218,0.020441543,0.109857015,0.057021596,-0.05043147,0.094042085,0.055219233,0.07005128,-0.027428832,0.40186343,0.28731057,0.027502488,-0.31051514,-0.03722708,-0.009042711,-0.108610734,-0.13744849,-0.25537065,0.02541726,-0.058248263,-0.22428292,-0.3289079,-0.29401645,-0.16053194,-0.26370743,-0.24451092,-0.1308025,-0.16716686,-0.20973371,-0.09233232,0.004860285,-0.16034546,-0.045482356,0.0925733,0.16031441,-0.03391082,0.03920515,0.026691152,-0.23436077,-0.20612457,0.15460758,0.08964809,-0.07481293,0.034335542,0.036475103,-0.040997785,0.018691473,-0.05293293,-0.113953985,-0.3194293,-0.28732908,-0.19830759,-0.22519648,-0.14012833,-0.19458464,-0.22626083,-0.13640647,-0.0092222635,-0.054000273,-0.13228144,0.14393876,0.44566903,0.5049356,0.1434683,0.106043115,0.1804365,0.030306114,-0.10998302,-0.0825702,0.21842924,0.2359741,0.31427947,0.09386349,0.07192366,0.2230004,0.10685283,0.057075046,0.032982543,-0.093616866,-0.021393586,-0.047764976,-0.062101755,-0.07533707,0.1462924,0.075586505,0.34863892,0.2554208,0.2692888,0.4066395,0.5382323,0.39388153,0.2574906,-0.056112405,-0.07390794,-0.030087681,-0.026901988,0.020285314,-0.27619255,-0.28859264,0.15958768,0.033817712,0.08955592,0.0825198,0.2100855,0.31054762,0.14138028,0.11691922,0.052879803,0.11842845,0.40540063,0.34558097,0.3920044,0.5040684,0.67059726,0.5454578,0.5723689,0.5495334,0.70814544,0.54591477,0.013040626,0.025682569,-0.05015255,0.005614904,-0.019863948,-0.037611548,-0.08481854,-0.42480484,0.086742595,0.051171523,-0.002859608,-0.060491905,0.081259534,-0.095563136,-0.067570224,-0.054101214,-0.069961846,0.34687334,0.5605944,0.31873226,0.41209248,0.4972616,0.6621969,0.5160994,0.2884711,0.35863963,0.34086773,0.17776117,0.23982087,0.25606093,0.12424091,-0.044723906,-0.025315635,-0.062455595,-0.2403626,0.10777083,0.2347271,-0.03181764,-0.011228162,0.06020725,-0.048596844,-0.1042919,0.0059335963,0.33578563,0.4689867,0.39393258,0.37990284,0.3593738,0.24303173,0.06405604,0.34978902,0.22549401,-0.0714561,0.16410826,0.15690786,0.083205864,-0.03646682,0.10780398,0.015706297,-0.04472988,-0.0072045187,0.01690421,-0.06798927,-0.04845254,-0.44204095,-0.11924524,0.08410667,0.38643923,0.39756835,0.2545793,0.1653161,0.2019875,0.32436505,0.5441484,0.2926812,-0.15223889,-0.105639815,0.085886225,0.133866,0.3422787,0.14080554,0.2999507,0.32183468,-0.09942211,-0.08721097,0.011142676,-0.00995117,0.031937517,0.03997908,-0.019137632,-0.06500115,-0.08134957,0.103767015,0.22412403,0.089434475,0.25192145,0.27552545,0.45048213,0.43317187,0.3785368,0.39224857,0.4740211,0.26913413,0.0035593442,-0.03322573,0.38175374,0.06900156,0.26997516,0.33213842,0.37969825,0.29997942,0.24533111,-0.0012819531,-0.043620385,0.04224426,-0.030002408,0.07192644,-0.06217522,0.058493957,0.024456918,-0.035363898,0.0011999445,0.018305989,-0.008714689,0.03637268,-0.012641032,0.018566292,-0.010365321,-0.014295043,0.027961927,0.0068404838,0.081295915,-0.041109882,-0.063557945,-0.036123212,0.02363938,0.053047244,-0.061299782,-0.017981173,-0.044620857,0.0712649,-0.010547796,-0.013556427,0.014056881,-0.052936047,-0.021630185,-0.0036436708,0.04625035,0.02538975,0.024318906,0.14770643,0.111180596,0.021886662,0.09082935,0.1637576,0.11426704,0.14041956,0.16695777,0.13789758,0.3145441,0.44409066,0.34687844,0.11913478,0.16130506,0.16499518,0.20548865,0.2060706,0.04151027,0.026027134,0.10695301,0.05609719,-0.103242405,0.010395645,0.0502473,-0.007852349,0.06697605,0.008861529,0.078382775,0.082469314,0.21373932,0.1187482,0.23811837,0.34583423,0.3926973,0.2935264,0.5392845,0.5175402,0.52851987,0.5615059,0.57930446,0.5402215,0.20386527,0.17605594,0.25562757,0.23221117,0.20085242,-0.07012638,0.01025317,0.031015996,0.01965818,-0.13736163,-0.0798232,-0.38074395,-0.12473404,0.11138487,0.2832628,0.16831604,0.18557344,0.3529813,0.39080423,0.5081625,0.52573586,0.48105153,0.9014213,1.0906583,1.0365584,0.9322882,0.35150966,0.3033786,-0.05223602,0.043561745,0.23557927,0.22627872,0.37526157,0.22712044,0.34308147,0.31981102,-0.04327836,-0.006290715,0.010265367,-0.27229238,-0.28741774,-0.032000385,0.32377476,-0.11172942,0.055647068,0.24462567,0.33022296,0.31216887,0.2737619,0.34681264,0.23988494,0.43941444,0.4958808,0.14670698,0.26668,0.22185226,-0.14148438,0.03998466,-0.049419515,-0.19682612,-0.22249956,0.3457639,0.47451898,0.24705842,0.329704,-0.012367298,-0.04490164,-0.18573198,-0.03989286,0.11183023,-0.011581807,0.06921344,0.09560928,0.28724185,0.17708823,0.12922119,0.1570498,-0.07855271,0.086405925,0.14670357,0.07858425,0.13824329,0.21973494,0.29973704,0.31314492,0.35685247,0.24189891,-0.047118794,-0.11944249,-0.14749475,0.48049077,0.62491405,0.38407484,0.009281111,0.14831649,0.15501238,0.0035712104,-0.060251754,0.11548418,0.12593707,0.2627567,0.27148372,0.161708,0.2042607,-0.11096236,0.0028175612,-0.027968979,-0.015018513,0.17878617,0.04379959,0.16982502,0.17333417,0.25002947,0.06528754,-0.053111546,-0.2467049,-0.15061282,-0.13504186,0.4183157,0.018210901,0.27465937,-0.018637808,0.4843174,0.05818779,-0.16017988,-0.18127137,0.11116325,0.15864806,0.38415724,0.21047707,-0.19289665,0.05791265,-0.060336836,-0.14265668,-0.068869546,-0.09233138,0.23502986,0.09280256,0.06440822,0.027870024,-0.050577186,-0.066491626,0.0864464,0.18614872,-0.22199829,0.0375967,0.1571413,0.089343384,0.3611447,0.25705108,0.48733276,0.052870017,-0.016137514,-0.23495658,-0.053525332,0.11278086,0.10582822,-0.4301284,-0.3346057,-0.046816327,-0.067383416,-0.026439255,-0.15012157,-0.1221992,0.060542814,0.25027734,0.14485425,0.09512951,0.11897952,0.2817263,0.1479553,-0.0812627,0.0043680505,0.15607697,0.041780647,0.23477024,0.29387847,0.15405485,0.50632936,0.07123433,0.07819693,-0.008245136,0.269781,0.3224343,0.09851852,-0.09576358,-0.17246814,-0.10801594,-0.003771638,0.061990473,-0.15439175,-0.07338823,-0.31211832,-0.11176699,0.069938764,0.18328394,0.2680113,0.2842402,0.11965471,-0.07265955,0.18403311,0.22942719,0.55871993,0.2738059,-0.27656296,0.23791456,0.015109243,0.2240899,0.18880749,-0.0106040435,0.26269376,0.5101991,0.28783804,0.06937784,-0.01723896,0.027752457,0.14017735,-0.0155178355,0.100821,-0.22603889,-0.4172566,-0.21985592,0.115205385,0.24229503,0.22834231,0.25011903,0.056123417,0.12565136,0.35232103,0.28145722,0.12925401,0.11384412,-0.2645494,0.00569976,0.24154027,0.08079552,-0.06295761,-0.15350977,0.32770345,0.32955486,0.08338194,-0.2494504,-0.09624407,-0.080914564,0.20905733,-0.031086707,0.08339866,-0.28903595,-0.32347453,-0.36084756,-0.15943845,0.0729557,0.14091158,-0.037308607,-0.08311024,0.14254227,0.60456824,0.5191168,0.6447179,0.4034575,-0.05417983,-0.029831948,-0.09567251,-0.21543409,0.27452853,0.23478112,0.59679425,0.37584457,0.010916286,-0.23786816,-0.032042954,0.03448797,0.10909906,-0.2073419,-0.17264315,-0.23533913,-0.36077,-0.39682505,-0.07832784,0.08559694,0.107590705,-0.09499788,-0.3560304,0.31157258,0.4639332,0.36753976,0.52117956,0.51257676,0.0034433277,-0.042277753,-0.025982039,0.19153737,0.29556856,0.26536894,0.5848286,0.17858613,-0.13206898,-0.19322148,-0.20370841,0.115725815,0.18863569,-0.1522643,-0.29928827,-0.33947122,-0.4228989,-0.29939026,-0.22560194,-0.098379806,0.06139275,-0.21464211,-0.22771454,0.16013117,0.25383708,0.3782262,0.38930097,0.5559068,0.32011774,0.15146494,-0.047834925,0.057217628,0.1865211,0.039507914,0.43354112,0.43932718,0.12333573,0.01950118,-0.10347633,0.119827166,0.08256726,-0.25905922,-0.24478321,-0.25173923,-0.24145298,-0.3172297,-0.21447635,-0.16610238,-0.100285426,-0.06403043,0.048697397,0.38209748,0.4075919,0.43467376,0.39363024,0.5944958,0.10619032,0.06664273,-0.07523368,-0.33467868,0.1476644,-0.06077008,0.50337154,0.6134308,0.41296393,0.16817123,0.017324762,0.037069548,-0.13858643,-0.2691289,-0.29150358,-0.088159025,-0.25664192,-0.36665475,-0.20428948,0.044763736,0.22381932,0.29796097,0.100836605,0.36178863,0.3355982,0.6622079,0.49609062,0.29722896,0.071240015,-0.08063055,-0.124575555,-0.09560788,0.38387373,-0.003965911,0.407203,0.49024945,0.28739953,0.17207146,0.018873574,0.15348716,-0.08378684,-0.14281093,-0.27560532,-0.31170672,-0.005016918,-0.18445963,0.044489466,0.29926938,0.34870353,0.18135013,0.11365005,0.5956572,0.4783835,0.5558141,0.6312031,0.4577868,0.21878509,-0.002017665,-0.06633856,0.2595824,0.32911423,0.3804282,0.4270125,0.60945785,0.39474636,0.18585835,0.2160764,0.050086726,0.03640207,-0.21757083,-0.26786104,-0.1880005,0.2397855,0.309068,0.54806966,0.7152046,0.6042462,0.27865052,0.15913436,0.3174318,0.15400858,0.19855729,0.25633666,-0.052662905,0.19030565,0.38829613,-0.08867142,0.3555433,-0.020325141,0.55328685,0.7584191,0.7458557,0.5403221,0.31005764,0.19670708,0.3909925,0.07212279,-0.13587812,-0.13261183,0.030116245,0.46576452,0.8133227,0.75325143,0.6853716,0.8324807,0.7493277,0.32802293,0.46011555,0.26111522,0.37341863,0.077660225,-0.5833006,-0.25191203,-0.06373012,0.37274566,0.22705236,-0.19595589,0.37475675,0.799307,0.4267505,0.27816558,0.25442436,0.25535485,0.28984588,0.07131105,0.038204297,0.05988436,0.14743088,0.52527785,0.577824,0.68591386,0.6253695,0.70454276,0.5373193,0.3987144,0.4928897,0.4739304,0.5715963,0.063668735,-0.12137146,-0.25953358,-0.07655844,-0.020551322,0.25231624,0.39412928,0.044304833,0.39831033,0.28619,0.28995356,0.18807568,0.19109724,0.245656,0.19633932,0.011179131,0.2862164,0.23143665,0.43130967,0.23382524,0.40206835,0.30461416,0.4910032,0.7458501,0.44566724,0.35638562,0.39831465,0.39165345,0.22522163,-0.17873056,-0.10811411,-0.1162392,0.058384467,0.27180186,0.02563991,0.07208162,-0.123405054,0.1189056,0.15954293,0.0061118565,0.04390125,-0.0341213,0.16935207,0.29816133,0.31833276,0.27643898,0.09721913,0.21295272,0.18175112,0.12779972,0.45194602,0.43983,0.23419474,0.48961213,0.28771222,0.08018519,-0.16771066,0.033974215,0.084600165,-0.08182694,-0.006347377,0.06936827,-0.06608222,-0.16809942,-0.46357247,-0.14718173,-0.079625726,-0.120104276,-0.11899464,0.0038762812,0.1684795,0.30261633,0.1556829,0.076844275,0.047394335,-0.06595593,-0.32403815,-0.20151056,0.030628227,0.118615925,0.22440311,0.2781,0.17424382,0.23570323,-0.12911631,-0.25743875,0.046933945,0.01536364,-0.073027015,0.31679037,0.23803817,-0.0042060143,-0.36809722,-0.24207874,-0.120746374,-0.059184678,0.06293549,-0.049917698,0.046223026,-0.2590424,-0.14520372,0.040758103,0.00964926,-0.19248173,-0.53155786,-0.34189758,-0.19560936,0.23717909,0.31396285,0.24326679,0.1772008,0.08577249,-0.27147362,-0.4148095,0.002910281,0.0077663492,0.06725691,0.26719505,0.3624813,0.112714745,-0.45280233,-0.08272855,-0.26969686,-0.040187817,0.080813944,0.04661644,0.03252905,0.36013806,0.30187818,0.24744473,0.2475914,0.5029235,0.000034300137,-0.15678129,-0.22605152,-0.051277786,-0.16805069,0.03287868,0.007988654,0.20381227,-0.21342988,-0.12469874,-0.0435203,-0.038610935,0.02993362,-0.015672764,-0.46698642,-0.3534117,-0.41041422,-0.0012526546,0.027092671,-0.06668019,-0.010981972,0.28865054,0.26868895,0.6051256,0.34219307,0.4173595,0.7281102,0.6768555,0.2789339,0.07601936,0.3780486,0.0027454856,-0.08307052,-0.10300074,-0.22275212,-0.043902222,0.099727884,-0.040639117,-0.03826459,-0.051020402,-0.01910356,0.010157706,-0.09343499,-0.50809264,-0.42565882,-0.45975736,-0.1675511,0.11837885,0.07293293,0.31324244,0.33935413,0.4270525,0.83514225,0.2901368,0.03545667,0.050447945,0.051656667,0.29677844,0.31028485,0.34881374,0.07440976,0.30798495,0.32114092,-0.059726525,0.1435683,0.009596469,-0.030228782,0.0013155878,0.031933922,-0.07320581,0.03094554,0.16674325,0.21888913,0.45911887,0.41624898,0.5212196,0.3647747,0.3840852,0.093547314,0.13980743,0.27622488,0.17918305,-0.23083398,0.086348146,0.34547296,-0.118858,0.12105688,-0.02312189,-0.21743897,-0.30045065,-0.02390547,0.053264946,-0.021227058,-0.023255687,-0.057649024,0.036297414,0.011061136,-0.029554946,-0.042710442,-0.029021299,0.049827702,-0.018766547,0.007479093,-0.025713036,-0.04112909,0.10814681,-0.012854269,-0.046880174,-0.008676322,0.020246394,-0.038028643,-0.055263296,-0.024993198,0.06858506,0.06419443,0.0017973243,0.0024237703,0.041828617,0.027338436,0.04051315,-0.10608246,-0.07385325,-0.060187783,0.09504504,0.02768968,-0.033211928,-0.046204407,0.034093387,-0.027247934,-0.03328995,0.062257726,-0.0049417876,-0.11235447,-0.11151517,0.0185757,0.101099424,0.019536665,0.18946226,0.11596798,0.039313965,0.13893549,-0.09455681,-0.3256866,-0.3097472,-0.28844503,-0.2376666,-0.15764934,0.03878572,-0.020895828,0.0016047003,-0.11031366,-0.0063556936,0.013036359,-0.10531864,0.0055579687,-0.25155216,0.005911252,0.12071034,0.1294579,-0.45708454,-0.5623948,-0.46401808,-0.4253769,-0.06164874,0.17738378,-0.035206057,-0.2151592,-0.28964245,-0.37455449,-0.4046221,-0.29370657,-0.5863421,-0.89003944,-0.8052103,-0.7795447,-0.415292,-0.15741038,0.06280177,0.05185403,0.0743218,-0.07281797,0.27825448,-0.079850815,-0.2324357,-0.12713389,-0.10588952,-0.22252409,-0.32717276,-0.0012478621,-0.63905674,-0.51509655,-0.19019695,-0.15271163,-0.28352708,-0.38829926,-0.653093,-0.54389197,-0.6113918,-0.8379779,-0.64147747,-0.5013291,0.033848975,0.17478676,0.29126486,0.07432197,0.022892782,-0.05462656,-0.07427314,0.04989572,0.33670247,0.2247175,-0.2466444,-0.42117608,-0.45855072,-0.7128078,-0.83644205,-0.42993024,-0.676976,-0.6010562,-0.3827995,-0.17752782,-0.21303612,-0.29678494,-0.40130234,-0.2925472,-0.3571407,-0.2333439,-0.049795695,0.16865201,0.3553184,0.5730785,0.7796605,0.4475345,0.12878872,-0.26484463,-0.021857414,0.03141361,-0.0199542,0.00018167938,-0.15201391,-0.37385976,-0.52742296,-0.7372666,-0.8757338,-0.567886,-0.44636372,-0.11261894,-0.18705113,-0.05679454,-0.06671046,-0.2557175,-0.39603943,-0.1757883,-0.17143144,-0.14168388,-0.03270433,0.11333997,0.17594431,0.09787889,0.443363,0.13002604,0.0753478,-0.22032776,-0.043749694,-0.30379122,0.18546912,-0.14383018,-0.16310452,-0.33046532,-0.5762631,-0.66799515,-0.92314726,-0.9540819,-0.3960064,-0.10367918,0.037280943,0.030376256,-0.012023065,-0.014960302,-0.27577186,-0.20656343,-0.13623777,0.011825393,-0.040961012,0.056795858,-0.03980795,0.046084423,-0.080352396,0.05765326,0.30098367,-0.23710743,-0.016358573,-0.52108425,-0.052174725,-0.50743544,-0.39175567,-0.38604122,-0.5216211,-0.8581986,-1.0063543,-0.6802355,-0.12411282,0.44477558,0.3555993,0.17689316,-0.10528839,-0.1580781,-0.19243559,0.026833655,0.061807893,-0.030785216,0.07148139,0.15543154,-0.056697544,0.009659504,-0.07713691,0.11487867,0.17053592,-0.16246776,0.38867134,-0.3932218,-0.30929667,-0.5273215,-0.5510993,-0.50053626,-0.10493655,-0.38875693,-0.76827735,-0.538612,-0.10372313,0.4876142,0.5957664,0.484513,0.18685132,-0.1305372,-0.12969862,-0.05953956,0.11587752,-0.08645082,0.00375856,0.007828154,-0.1300501,-0.00298123,0.37463847,0.57939684,0.22535615,0.123080365,-0.22231656,-0.3152928,-0.2917152,-0.5584501,-0.5868219,-0.68170875,-0.3821784,-0.4147866,-0.74928695,-0.4762491,-0.32286865,0.44262996,0.55782324,0.53369427,0.3238842,0.12353333,-0.18088932,-0.009427806,-0.01406277,0.014485698,-0.07259232,0.0019497,-0.32206184,-0.03863065,1.075148,0.781316,0.382733,0.13772623,-0.20646322,-0.10715315,0.09480241,-0.46698597,-0.30618182,-0.5266435,-0.56639576,-0.49998006,-0.47773468,-0.4914061,-0.16151011,0.33439216,0.5805624,0.5304434,0.42171985,0.34022003,-0.02084442,0.0072588082,-0.10176285,-0.115464985,-0.22035235,-0.016329262,-0.09103328,0.11097941,0.67752135,0.3993143,0.30911103,0.2405951,-0.028890248,0.21936323,-0.20312701,-0.62144434,-0.54432505,-0.5137838,-0.3320875,-0.28203142,-0.5979121,-0.36550343,-0.06558371,0.08449828,0.33519492,0.26782238,0.15820013,0.16186467,0.043728452,-0.060878035,-0.039677653,-0.17669927,-0.2440835,0.02752921,0.014895551,0.46633676,0.7137865,0.084732875,0.3394136,-0.052696448,-0.0451735,0.04620633,-0.25544655,-0.26611272,-0.31025875,-0.50759846,-0.27880853,-0.30552498,-0.39713547,-0.32068646,-0.2784171,0.18156287,0.4303377,0.25333315,0.1198285,-0.04151054,-0.102310576,-0.123743705,-0.0731964,-0.0230555,0.19730102,0.14316148,0.23616584,0.6156458,0.4253894,0.097802155,0.051105015,-0.31755868,-0.022121515,0.05353114,-0.25263658,0.17367402,-0.28102404,-0.3534154,-0.20862101,-0.05247763,-0.16068695,0.0011877608,0.011321621,0.12901042,0.30479592,0.12005348,0.1785953,0.18189746,-0.0034536796,-0.09918261,-0.17444685,0.16133898,0.3522503,0.29845127,0.29954907,0.35890263,-0.013877812,-0.20980756,-0.53640574,-0.3856467,0.19324951,-0.0776513,0.0072358227,0.046263803,-0.49405575,-0.2284056,-0.27516073,-0.019145312,-0.020615982,-0.009036066,0.077149846,0.025488865,0.059263807,0.07167643,-0.029966198,-0.0032475975,0.0114570595,-0.08821904,-0.25860348,-0.03760658,0.09333336,0.044516385,-0.15782268,0.10214166,0.16438626,-0.32690594,-0.81811327,-0.24200173,0.30605853,-0.17353547,0.18408296,0.2568657,-0.035528734,-0.21070646,-0.18138053,-0.0027119713,-0.025418533,0.07295488,0.049815614,-0.041958336,0.087642685,0.02271052,0.08108017,-0.13080262,-0.17756471,-0.16632369,-0.1642915,-0.11622331,-0.028318148,0.10215999,0.1306215,0.09829537,0.05532746,-0.2798105,-0.53123826,-0.21358292,-0.040423322,-0.30680674,-0.12193417,0.113139264,-0.105456874,-0.032299902,-0.09565085,-0.047896557,0.16435073,-0.045353796,0.08477162,-0.025143683,-0.0051076016,0.0111839175,0.08906941,-0.0493805,-0.25045925,-0.15677422,-0.08828953,-0.20565651,-0.04960584,0.2279324,0.14834219,0.054458883,-0.24799548,-0.5736557,-0.74445474,-0.0042454153,0.007558099,-0.22716208,-0.26693407,-0.0023021803,-0.010343656,0.06731186,-0.032062195,0.08777483,0.07322856,0.25466174,0.25838447,-0.029079996,0.005069698,0.35272288,0.40944996,0.06068426,-0.18476413,-0.12326121,-0.012049745,-0.18952236,0.023356201,0.082467176,0.28276625,-0.012188764,-0.17090966,-0.47623345,-0.4307638,0.17053828,-0.36483786,-0.15513127,-0.34701395,-0.18810211,0.040833667,-0.14741485,0.012578548,0.00712829,0.15200518,0.19741537,0.06829915,0.0834319,0.15570238,0.21612528,0.107169144,-0.13757424,-0.15877636,-0.023387697,-0.07523506,-0.14302981,0.12765639,0.17106214,-0.026054552,-0.18302009,-0.16188951,-0.16082132,0.020406343,-0.13952017,0.07729463,0.13065423,-0.024781585,-0.4115372,-0.13097885,-0.0152327735,0.053906612,-0.0039780056,0.123566546,0.1309651,0.10527339,0.09106762,0.092459515,-0.06508886,-0.13101217,-0.14288442,-0.16541311,-0.15124682,-0.15679708,-0.043781992,-0.056222383,-0.118350446,-0.36686444,-0.50619525,0.13177215,0.23952352,-0.20429283,0.15119004,0.08020964,0.35918847,-0.11206486,-0.6633858,-0.081820965,-0.007013899,0.095745765,-0.08679889,0.1165043,0.029862667,0.13577476,0.12948754,0.029341102,-0.16497324,-0.15227656,-0.15892056,-0.08207019,0.022937667,-0.0769355,0.06706663,-0.32116708,-0.44460854,-0.6550438,-0.45874366,-0.008485686,-0.14232624,-0.14434369,0.07976445,0.049191985,-0.27727145,-0.1534319,-0.2951911,-0.08955411,-0.039932575,-0.07294127,-0.21578965,-0.13490252,0.06050505,0.1403277,0.11505327,-0.06070382,-0.12087236,-0.2585965,-0.13146693,-0.19353563,-0.0918416,-0.041743916,-0.17023487,0.04651586,-0.4278559,-0.68767905,-0.15989779,0.095345125,0.22411935,0.3005818,-0.031171184,0.1857116,-0.03826593,-0.47795185,-0.08467277,-0.19304039,-0.09624054,-0.023055347,-0.046230353,0.11565085,0.07930085,0.11960127,0.08645583,0.13860083,-0.014279291,-0.11056059,-0.16376159,-0.12867443,-0.14648266,-0.20864998,0.023295129,-0.06591421,-0.42982337,-0.11384766,0.16262402,0.15945828,0.35713774,0.26522723,-0.023646256,0.010559295,0.047646362,-0.5538526,-0.45987752,-0.2888502,-0.08272652,-0.033197973,0.017658504,0.15895307,0.19253264,0.11281177,0.100826144,0.25023773,0.09317008,0.13428715,0.017281167,0.048228644,0.038227223,-0.19410473,0.053374432,-0.046471097,-0.37027913,-0.34328586,-0.010552079,-0.21198046,0.14189251,-0.06534089,-0.021348977,0.0010496797,-0.04834232,-0.4358966,-0.37813953,-0.3404815,0.067676544,-0.033912282,-0.009869154,-0.003618221,0.06688737,-0.15655002,-0.1802711,0.031346694,0.18752028,-0.01562901,-0.014241524,-0.35390794,-0.5186231,-0.20058535,0.08203401,-0.12650843,-0.20407988,0.079807706,0.085123315,0.08508408,0.085469425,-0.24212563,-0.033021193,-0.0069175838,0.02363836,0.013815962,0.42060804,-0.06582782,-0.18604453,-0.4651667,-0.48926836,-0.6348335,-0.49594733,-0.2389049,-0.16682535,-0.39413568,-0.27315325,-0.24907444,-0.24449761,-0.91244245,-0.82042634,-0.34126025,-0.45192903,-0.49610615,-0.36565214,-0.056876887,0.22840665,0.14293547,-0.23256484,-0.1867095,0.112605564,0.12944455,0.031893637,0.032143757,-0.03761842,0.12310112,-0.010990737,-0.064599395,-0.4179011,-0.34802184,-0.3695542,-0.5535991,-0.3470075,-0.082300246,-0.5912042,-0.86850715,-0.2695912,-0.4469001,-0.591512,-0.63873816,-0.40856868,-0.38788167,-0.36532763,-0.25572923,-0.11360858,-0.050262593,0.07429644,0.08069625,-0.0025978128,0.054976486,0.034485664,-0.009984583,-0.02536432,0.06555079,0.024390751,-0.13896774,-0.28160295,-0.33464688,-0.2984301,-0.3187786,0.0923694,-0.14220954,-0.22889434,-0.6425792,-0.33548737,-0.09606122,-0.23863949,-0.2786929,-0.16235483,-0.029212724,-0.3351511,-0.27162346,-0.15146326,0.006632764,-0.089943185,-0.10090987,0.07656689,-0.040432446,0.040035572,0.07945787,0.005584608,0.014419969,-0.10891732,0.06200724,-0.010287024,0.01934145,0.009799983,0.018292328,-0.016466653,0.026633045,-0.017881855,0.009710382,0.006222991,0.07705991,0.0026676962,0.052387968,-0.050453402,0.07063348,-0.114217915,-0.018471275,-0.042493213,0.06523874,0.0044843573,-0.06289501,-0.026169576,0.02466389,-0.058993418,-0.10484441,0.080934905,0.1196124,0.05420717,0.09352414,-0.054363202,-0.095901564,-0.1477971,-0.0688543,-0.25467494,0.28389347,0.42053467,0.2668657,0.273276,-0.12824695,-0.13134652,0.33333856,0.39264402,0.31364888,0.22184393,0.15150449,0.044448733,-0.0073416554,-0.03013714,0.013293383,0.05342479,0.0006972053,0.03260504,-0.012780584,0.1861088,0.31233558,0.023094155,-0.007240352,-0.03478981,-0.28296712,-0.28305927,-0.3265783,-0.3174824,-0.14795421,-0.12792861,-0.26784262,-0.16416083,-0.15348466,0.018222941,0.011167445,0.40856937,0.19397739,0.16483843,0.36763516,-0.014092952,-0.20591895,-0.119701736,0.0124390945,0.0035979168,-0.0023646425,0.047720384,-0.039697275,0.35624373,0.40646064,-0.015073887,-0.04578554,-0.10617865,-0.43498662,-0.5403482,-0.48732966,-0.3873701,-0.18410088,-0.43162096,-0.40841147,-0.39609277,-0.3569823,0.038492706,0.0030247972,0.05268473,0.3712252,0.2746014,0.047034696,-0.20825185,-0.29177,-0.13830377,0.36312628,-0.0039291196,-0.064729996,0.0413977,-0.07697859,0.34338835,-0.07747641,0.20841861,-0.025631947,-0.3795583,-0.63766056,-0.55603653,-0.378612,-0.08127579,-0.16262737,0.046194904,-0.15783456,-0.116252914,-0.18425205,-0.35516363,-0.19066109,-0.025293417,-0.0699642,0.15641552,-0.098037735,0.21633057,0.20582697,-0.111362845,0.04708569,-0.014941523,-0.014017279,-0.017849172,0.2876032,0.3243003,-0.16954479,0.08605464,-0.30765665,-0.595157,-0.74941105,-0.22262056,-0.05767412,-0.04386534,-0.014938233,0.013536703,-0.119459376,-0.09417197,-0.13637882,0.0062218374,-0.073137514,0.069599584,0.03790208,0.03416502,0.0693762,0.270821,0.4251272,-0.11729344,0.03046718,0.32334936,-0.068960086,0.08137302,0.22136024,0.061507314,-0.10575854,-0.39286032,-0.73287874,-0.636491,-0.22791237,-0.27945942,-0.03708184,-0.040575054,-0.11150189,-0.060162198,-0.076369405,-0.25767714,-0.11647382,0.07294298,0.04489293,0.26258072,0.30151147,-0.13400625,0.026811907,0.26415116,0.46723118,0.32623786,0.056254044,-0.03330042,0.01874552,-0.23595718,0.045229577,-0.1328665,-0.034827784,-0.22374573,-0.7924082,-0.3927524,-0.4961835,-0.40499574,-0.036473315,-0.04853372,-0.07401154,-0.18121739,0.040349454,-0.13647701,0.06200578,0.056228116,-0.027764022,0.10188343,0.18350491,0.01403036,0.0039464734,0.362032,0.24885516,0.31530547,0.0874532,0.070039585,0.1956251,-0.54255354,-0.3237287,-0.20100114,0.004911555,-0.10452852,-0.4266206,-0.53907895,-0.5921687,-0.2882132,-0.15758583,-0.11540302,-0.22628257,-0.12978621,-0.10467211,-0.15576294,-0.12197943,0.006455749,0.058419324,-0.045802493,0.062275726,0.16860366,0.09465795,0.034239512,0.46107608,0.49010882,0.0045090085,0.1451254,-0.12505746,-0.31054646,-0.38816977,-0.34406114,-0.06185195,-0.41892537,-0.64402694,-0.50364304,-0.34650123,-0.07696853,-0.031633377,-0.040325694,-0.24721313,-0.028916067,-0.03490327,-0.093467794,0.032830182,-0.03972899,-0.07819282,-0.09621925,-0.18946452,-0.08896101,-0.08410453,-0.09239467,0.20482044,0.1817787,0.008979841,-0.40543202,-0.12703867,-0.05141964,-0.32932776,-0.23111016,0.09086826,-0.59125113,-0.7102076,-0.38458323,-0.01462339,-0.1856445,-0.23753104,-0.091458865,0.067561686,0.3151345,0.24855794,0.2353589,0.116555944,0.1469995,0.15800649,0.05411408,-0.18955246,-0.12249723,-0.17682168,0.0980554,0.58750373,0.42555347,0.08829665,-0.31810874,-0.031409167,-0.13797414,0.117693625,-0.2346905,0.061678976,-0.22843005,-0.4312288,-0.30385625,-0.12347225,-0.23890871,-0.1786385,0.115889765,0.10027406,0.40728134,0.28572723,0.2107544,0.28441542,0.1767719,0.286762,-0.05703901,-0.33829385,-0.28057182,-0.32530895,-0.030199114,0.3682032,0.28360707,0.11053093,-0.00868593,0.053503655,-0.1367918,-0.117819525,-0.20864972,0.0194743,-0.5282667,-0.4263716,-0.28445783,-0.32050115,-0.23745914,0.014698812,0.19714305,0.2176094,0.2745906,0.24984367,0.12596554,-0.08290133,0.09655275,-0.030578783,-0.26297325,-0.45796853,-0.5680719,-0.7491166,-0.6221898,-0.4491084,-0.112169735,0.18658014,-0.25268734,0.0829197,-0.12968352,-0.4636317,0.190531,-0.15351082,-0.75484586,-0.6366122,-0.4605274,-0.33013165,-0.23620631,0.13840774,0.20692725,0.3125641,0.21688873,0.18456726,0.06436202,-0.12613037,-0.06500669,-0.16746068,-0.14206354,-0.25807527,-0.24505433,-0.8571695,-0.91110975,-0.8036891,-0.4985363,-0.4436164,-0.32868028,0.22531237,0.15109918,0.0575394,0.073349774,-0.20131478,-0.23691873,-0.49507278,-0.39852723,-0.22704512,-0.21908015,-0.0026945388,0.23589197,0.12620474,0.07505259,0.12779112,-0.062082812,-0.010764318,-0.15220243,-0.17313065,-0.0723679,0.10454111,0.029977448,-0.62389946,-0.8772133,-0.48918638,-0.40659094,-0.49550065,-0.23464218,0.14605123,0.23866078,0.342028,-0.39407718,-0.08124605,0.057279423,-0.1887731,-0.23109242,-0.22280361,-0.3959239,-0.16705413,-0.04091867,0.18286426,0.09450288,-0.06906655,-0.15575652,0.018161148,0.09982097,-0.04300091,0.20558402,0.26117122,-0.07894659,-0.5133532,-0.31559533,-0.5204362,-0.5007014,-0.5735662,-0.34184518,-0.19938335,0.20074163,0.0038701785,-0.1312333,0.14977823,0.06823099,-0.0045101694,-0.35262454,-0.4560563,-0.6873804,-0.5003679,-0.034845836,0.06894115,-0.1546335,-0.10537624,-0.10857869,0.1300528,0.026247343,0.23108968,0.30308807,0.065863155,-0.3701955,-0.4282579,-0.37091812,-0.15818848,-0.520097,-0.5626074,-0.21161807,0.00004790391,0.16252017,-0.148817,0.01769645,0.15619923,0.15169275,0.041501172,0.0855976,-0.2569963,-0.33286178,-0.22132216,-0.24183488,-0.3633554,-0.21509823,0.0021890327,0.14312226,0.14768107,0.24773125,0.40574384,0.1326028,-0.30187634,-0.39537972,-0.1842279,-0.054128744,0.0020992777,-0.022473807,0.12169627,-0.3300044,-0.3991318,0.12975815,0.009510285,0.16388088,0.18435103,0.16187467,0.20699583,0.1318844,0.17833453,-0.033708073,-0.20897406,-0.05817475,0.014921142,-0.016980914,0.13925369,0.145762,0.1737084,0.29807594,0.25748467,-0.11452982,-0.6218387,-0.5013568,-0.4820611,-0.16285712,-0.035076447,0.016277676,0.302708,-0.041073088,0.15270141,-0.2894539,0.09060222,0.33157972,-0.1682531,0.1898033,0.08311635,0.15659127,0.16113812,0.09653037,0.05826678,0.14477372,0.08504715,0.06511914,0.11132935,0.14509492,0.37196293,0.21354271,0.17599984,-0.40645242,-0.80371064,-0.6447121,-0.45774823,-0.19499907,0.14064327,0.25881425,0.038685672,0.080288105,-0.030489497,0.2217604,-0.092862315,0.05424663,0.0027321037,0.11840968,0.18272768,-0.08512154,0.11552827,0.019778593,-0.04664732,0.018691342,-0.11596706,-0.046863697,0.1021966,0.16594563,0.23468111,0.38636768,-0.12595838,-0.6671184,-0.6927485,-0.36697885,-0.14775065,-0.06429451,0.003294955,-0.09337369,0.118192896,0.14465235,0.11367985,-0.30165023,-0.15053491,-0.05888334,-0.16997336,-0.020177435,0.04832087,-0.08260147,0.009982629,-0.009352665,-0.11127821,-0.054641664,-0.13188078,-0.018338023,0.08082979,0.15940951,0.1679132,0.16043137,-0.39599055,-0.8052766,-0.634357,-0.407367,-0.23462765,-0.16999373,0.057187602,-0.0006899901,-0.05984254,-0.029077258,0.05817102,0.082681604,-0.09062455,-0.052187752,-0.34342358,-0.111629486,-0.10959141,-0.1378021,-0.13354895,0.0059995414,-0.066168375,0.011350142,0.006687618,-0.008122623,0.052463967,0.16124019,-0.04020265,-0.24159299,-0.44709507,-0.43723795,-0.53068405,-0.310716,-0.0999885,-0.26067144,-0.26347753,-0.14457788,0.15535304,-0.013043841,-0.055345435,0.05624678,0.20553523,-0.15117492,-0.12475687,0.023973327,0.13383433,0.010332229,-0.052719515,-0.04925851,0.21194166,0.1242085,0.16797867,0.16655497,0.14810568,0.13391411,-0.23544209,-0.46048564,-0.56798774,-0.58988273,-0.3168634,-0.21574244,-0.06920851,-0.3714823,-0.07748046,-0.1415483,0.3568474,-0.035594754,-0.08257282,-0.035634615,0.021459818,0.2809335,-0.034587674,0.14070867,0.1353122,-0.03648284,-0.07751461,0.0072091366,0.04018576,-0.115117095,0.14707588,0.0970545,-0.11045109,-0.23571327,-0.3821051,-0.37454855,-0.5669294,-0.3275475,-0.32155815,-0.20634738,0.060270753,0.057569496,-0.056051135,0.05918404,0.12273288,0.06871707,0.08622523,0.007467326,0.1322947,-0.18082193,-0.28221762,-0.15459418,-0.049287442,0.045786925,0.10008745,0.039576486,-0.23642887,-0.26920334,-0.04748251,-0.05182091,-0.2005526,-0.25682998,0.034345202,-0.033352178,-0.19620031,0.020006612,0.17436503,0.30147266,0.22323225,0.015187574,-0.10926382,-0.11056575,0.0017996273,-0.0062794522,0.0075383657,0.08737506,0.010747471,0.26064417,0.45393437,0.15735753,0.002946395,-0.18549712,-0.3690457,-0.20940912,-0.14127916,0.027359026,-0.1636546,-0.25569642,-0.17546618,0.10375689,0.11290842,0.28722298,0.1430465,0.16315438,0.13208914,0.14082815,0.14014164,-0.12501244,-0.047082152,-0.011334722,0.0026556477,-0.07343792,0.0010070804,0.013043761,0.06769244,-0.054899693,-0.18550384,-0.16970699,-0.07888172,-0.20128994,-0.30186346,-0.21076387,-0.259448,-0.16843647,-0.31424618,-0.5608067,-0.006581376,0.34453052,0.091531925,0.038312282,0.18366309,0.013050587,-0.030523976,-0.08038861,-0.06878826,-0.01105892,-0.027579429,-0.041516174,-0.015063122,0.027994758,-0.105685554,0.028779332,-0.02313444,0.07044184,0.07211234,0.026846193,0.026813358,0.020302184,-0.06268516,0.0783081,-0.06417978,0.036149595,0.08771993,0.16196199,-0.17576498,0.016195813,0.031120528,0.020411523,-0.02134717,-0.016611729,0.0055456036,-0.0018541758,0.07539192,0.026437609,-0.04696331,0.04768853,0.012457214,-0.08114414,-0.006112927,-0.04096421,0.040557075,0.021859253,0.036561344,-0.06399328,0.07237857,0.09703611,0.15072712,0.05414689,-0.11099846,-0.0976954,0.2932815,0.17358875,-0.006064992,0.121762075,-0.44240892,-0.18176433,0.5310729,0.40248337,0.45921788,0.2789412,0.3213783,0.22908409,0.0049744355,0.01393603,-0.036348786,0.0628888,-0.027822707,-0.008412382,0.012724409,0.37968075,0.2287532,-0.09363817,-0.098557636,-0.14719208,-0.14589088,-0.4009745,-0.35828897,-0.2825034,-0.16377653,-0.2657634,-0.3244239,-0.2676221,-0.08373076,0.09122044,0.20058258,0.6261724,0.63444763,0.47737727,0.61877024,0.3171316,-0.19987151,-0.18477215,-0.010293482,0.059498996,0.024961535,-0.003372623,-0.04572219,0.55800945,0.35635278,-0.008411359,-0.3575228,0.17206211,0.21379307,-0.20165953,0.0052712252,-0.0029046603,0.16856374,-0.14073503,-0.031501025,0.066869594,0.051190943,0.20107736,0.24691099,0.21796085,0.6316957,0.22371359,0.0019209073,0.35917282,0.24307427,0.040433116,0.27636695,0.042451724,0.09501969,0.09778783,0.19050057,0.40969408,0.39614984,-0.13301861,-0.38457012,-0.08995434,-0.45860264,-0.4306209,-0.16008078,0.11476454,-0.00039962758,0.15649346,0.1143319,0.047545835,0.105108574,-0.29146817,-0.17113562,0.028963316,-0.08928789,0.06699012,-0.06681648,0.06788833,0.05716548,0.008289799,0.5158488,0.33196744,-0.010031381,0.0730349,0.26708052,-0.08119459,0.113058805,0.07702245,-0.047522813,0.08669765,-0.33999658,-0.15947962,-0.0639371,-0.14520271,-0.16975015,-0.08930614,-0.13836405,-0.12015383,-0.2084924,-0.14522623,-0.07119707,0.066377126,0.016487097,-0.01981544,-0.10908361,-0.13789363,0.011273334,-0.024635607,0.5821574,0.44523048,-0.049389243,0.064514585,0.25013867,0.083645,0.14195846,-0.008339657,-0.02391417,-0.09954046,-0.04047804,0.14692484,-0.074335754,-0.050872326,-0.050338015,0.09601662,0.11084396,0.051400397,0.1158988,0.0866515,0.03711666,0.17036816,0.42159024,0.08313088,-0.061352707,-0.021031804,0.13935882,0.21994843,0.23195808,0.18728957,-0.079429746,0.31322628,0.05042504,0.02981203,-0.19097236,-0.4070443,-0.16677283,0.025813341,-0.016200393,-0.12628926,-0.12218579,-0.17654401,-0.013986304,0.087872416,0.27906907,0.2974081,0.25736192,0.23181276,0.3519241,0.19436061,0.22841504,0.08657985,0.10492002,0.1170508,0.04679889,-0.071010515,-0.05681873,0.09961212,-0.34079093,-0.08813909,-0.005113917,-0.024248436,-0.03523146,-0.3638651,-0.22745365,-0.016371341,-0.2077249,-0.019511197,-0.13602278,-0.18818145,-0.015065321,0.18429963,0.25191703,0.13894455,0.24551018,0.19082542,0.23429734,0.057026863,0.09240086,0.16765209,0.08091262,0.030441912,0.13444905,0.048303068,-0.04461525,0.33254567,0.100756235,0.34767723,0.31219867,-0.086880565,-0.09364284,-0.3667001,-0.109629095,-0.07854413,-0.19806154,-0.07174911,-0.17548542,0.008863962,-0.0112696225,0.0752907,0.23199682,-0.03240817,-0.014481063,0.12857732,0.05551738,0.08420696,0.02448729,0.028287824,0.18940575,0.09473279,0.2447923,0.551816,0.102136366,0.5054436,0.11797929,0.308601,0.38700086,-0.17751208,-0.14484298,-0.3947349,-0.21691826,-0.20886086,-0.199267,-0.13504377,-0.1463073,-0.2880097,-0.14491504,0.25555584,0.4555764,0.12757912,0.026323222,0.020626843,0.10435572,0.037020992,0.15152736,0.04694647,0.33040026,0.24505508,0.11785551,0.23050302,0.07872798,0.32888514,0.1548757,-0.066172265,0.40671444,0.055512853,0.1914029,-0.1987469,-0.30238888,-0.22194658,-0.040897958,-0.037067417,-0.104093686,-0.05822175,0.24554215,0.8038742,0.7539493,0.15306813,0.033305433,0.12116541,0.13614601,0.011749269,0.16793153,0.14859097,0.18752256,-0.07503154,0.02134661,-0.3212764,0.17198229,0.3620511,0.2526137,0.16393837,0.3363055,0.2644066,0.28571495,-0.01903167,-0.3518524,-0.32942373,-0.21223201,-0.12288547,-0.15187733,-0.023791302,0.29187208,0.44412532,0.49283484,0.30610624,0.084235996,0.11019884,0.16414058,-0.14874658,0.13784428,-0.040392224,-0.13185897,-0.18979324,-0.6641661,-0.13613817,0.22383487,0.39172608,-0.14811225,0.0626177,0.41501334,0.31481808,0.17310323,-0.006139329,-0.20608573,-0.35271028,-0.30887613,-0.20722549,-0.14068417,0.078799404,0.20949575,0.09840472,0.100336336,0.0750649,0.026594909,0.008730498,0.04967683,0.0353926,0.060664054,-0.14803301,-0.40775323,-0.690632,-0.75526077,-0.09201107,-0.3943929,-0.15209176,-0.16140918,0.0916103,0.26731616,0.099104464,-0.046280093,-0.16314395,-0.30645108,-0.47560227,-0.2858492,-0.116819516,-0.10281316,-0.07878679,-0.10936428,-0.081350684,0.075376585,-0.00729412,-0.13208774,-0.0073930104,-0.12350203,-0.020057658,0.039843846,0.041780435,-0.40670034,-0.5324307,-0.8215881,-0.19492903,-0.6690463,-0.24639305,-0.094325565,0.25717542,-0.15579812,-0.20852171,-0.08873718,-0.009640986,-0.07269471,-0.23697743,-0.2699184,-0.37194785,-0.24500544,-0.20975639,-0.14349386,-0.06974556,-0.010698438,-0.08155883,0.011052873,0.04983242,0.123632796,0.083088644,0.33551767,-0.06891642,-0.18640676,-0.40151665,-0.634732,-0.38257965,-0.53967124,-0.25960407,0.16466242,0.1169739,0.21139494,-0.3050025,-0.0306219,-0.016458306,-0.13099317,-0.13027552,-0.007874472,0.040188864,0.0063249827,-0.14276075,0.036003266,0.14483011,0.0018465781,0.051483236,-0.078503236,0.024849227,0.17114358,0.17509203,0.12749803,-0.28798407,-0.5363883,-0.7392567,-0.69721437,-0.7142885,-0.7376633,-0.23850001,-0.06414841,0.21586107,0.05956886,-0.42472613,-0.20277709,-0.028993584,-0.010024645,-0.002580466,-0.15347324,-0.0024052055,-0.12487578,-0.09543238,0.041891374,0.089692675,0.13809672,0.11364882,-0.013025316,0.06495273,0.20034774,0.3582506,-0.03470902,-0.34393018,-0.64937276,-0.4137224,-0.15968633,0.020915667,0.10656854,-0.26033503,0.2918831,0.07443275,0.122819155,-0.17046705,-0.01923037,-0.08016081,-0.04581542,0.010655475,0.0099286735,-0.034572728,-0.23760027,-0.050327394,0.039055213,0.13555054,0.053754814,0.16262199,0.09175683,0.19118161,0.36204863,0.3892473,-0.078710735,-0.6683637,-0.97289485,-0.9195842,-0.4750682,0.15994313,0.45389995,-0.3476813,-0.0018530476,0.32412553,-0.25043556,0.008531859,-0.093663044,0.07135402,-0.16498089,-0.20439038,-0.034151446,-0.0036897403,-0.09368685,-0.15517421,0.021530548,-0.18198514,-0.034621935,-0.035844,-0.00016240614,0.32435003,0.37272343,0.18412653,-0.26184148,-0.9028726,-1.0900596,-0.8482287,-0.15124655,0.18042378,-0.252184,-0.07477995,-0.014288101,0.07021605,-0.48620138,-0.0387643,0.06685995,-0.024874767,-0.15324269,-0.1018988,-0.049086366,-0.034719355,-0.0932378,-0.1886491,-0.14183317,-0.15314876,-0.15996681,-0.05483622,-0.1457385,0.1371163,0.011202816,-0.016539741,-0.5636478,-0.7864783,-0.60177916,-0.8269134,-0.19885656,-0.025409918,0.032208946,0.1361231,-0.09280585,-0.23363522,-0.2959841,-0.21276939,-0.039950598,-0.119649224,0.018875597,-0.046310443,-0.037028834,-0.097783506,-0.06461819,-0.023594877,-0.103334345,-0.24050875,-0.113268584,-0.17334388,-0.07310237,-0.050734933,-0.23018171,-0.3793295,-0.6313567,-0.75624114,-0.56325346,-0.62247187,-0.194982,-0.09154108,-0.42903557,-0.03567251,0.027493993,0.05302087,-0.27914074,-0.5779754,-0.2745269,-0.011091831,-0.19602458,-0.029254008,-0.120203264,-0.03602265,-0.047485854,0.11975727,0.13357167,-0.009277819,0.0623123,0.05995237,-0.17934673,-0.14741242,-0.47163993,-0.5505923,-0.6483643,-0.66423225,-0.42527628,-0.33754295,-0.22449045,-0.3073552,-0.41527978,0.04322265,0.010312859,0.08622529,-0.15050147,-0.10792332,-0.047306098,0.012441595,0.06301518,0.083804294,-0.13348933,-0.03371403,0.017145341,0.024972646,0.0075573223,-0.03382083,0.007759927,-0.07487967,-0.15928113,-0.31113958,-0.40485463,-0.7240829,-0.72362417,-0.7394486,-0.5166278,-0.4290518,-0.053783108,-0.14720686,-0.1408806,0.0044634305,0.027158668,-0.03942537,0.3955594,0.43743002,0.36903742,0.32546163,0.4010485,0.2275803,0.063496865,0.097587265,0.3420269,0.2157519,0.2400382,0.20725279,0.16186292,0.24493785,0.14099267,0.17294641,-0.2593132,-0.3984784,-0.3387731,-0.6152387,-0.37660152,-0.11766904,-0.28693488,-0.37493137,-0.08187139,0.06476287,0.012079733,0.012145814,0.077208236,-0.023643803,0.37356424,0.49850154,0.31672785,0.5916657,0.6215952,0.949466,0.78927803,0.44791788,0.6660573,0.6911189,0.4450143,0.45704997,0.92666173,0.96021247,0.82088405,0.54324406,0.044134524,-0.12152262,0.2319645,-0.10238149,-0.1453551,-0.11359142,-0.21420266,0.100738235,-0.03411866,0.021648372,-0.032473814,-0.034377657,-0.1173377,0.16194881,0.25280252,0.6118779,0.306864,0.6413507,0.6274689,0.56392336,0.20321442,0.4742335,0.6673568,0.3451818,0.7574075,0.73390746,1.0036457,0.6369033,0.8570566,0.44276172,0.50464916,0.057524227,-0.11613289,-0.046680324,-0.045676388,-0.10103261,0.020834867,-0.019267863,-0.051705636,-0.03875241,0.06266133,0.052030567,0.21968037,0.23957993,0.23728968,0.29821768,0.47480828,0.24332424,0.18428133,0.49253625,0.6739696,0.44425067,0.616158,0.5670459,0.40305728,0.17885536,0.33265015,0.13492686,0.13205124,0.10238394,0.074366584,0.063556336,-0.021847006,0.059448913,0.033025935,0.018965865,0.024524761,0.07487866,-0.048430078,-0.021385852,0.0070751435,0.0854728,0.0464892,0.026968615,0.012472594,0.041072477,0.063045025,0.0936499,0.14937562,-0.0238173,0.009478353,0.050637502,0.00456708,0.05875112,0.07219416,0.13764273,-0.03911408,0.09473908,-0.010325456,0.042780764,0.02053159,0.08741209,-0.024241101,-0.05102673,-0.037054047,-0.05947428,-0.040585726,0.10828168,0.2779141,0.3071821,0.13949023,0.14352821,0.30396405,0.38060996,0.49607283,0.3572661,0.32922944,0.4803376,0.5575286,0.5736026,0.45286095,0.35297197,0.3780676,0.14165065,0.25222492,0.21949388,0.02856056,0.0067665875,-0.032388672,0.02410932,0.052897044,-0.033049937,-0.022609582,0.40721357,0.37500232,0.17025015,0.2855994,0.33593687,0.44359672,0.76373374,0.60245806,0.8221726,0.71942925,0.86751074,1.1400524,0.89489573,0.5049157,0.469833,0.18165499,0.2792025,0.31203988,0.5813825,0.47295204,0.4509259,0.5380755,0.38837403,0.02739592,0.06157168,0.0016984367,0.12306132,0.470079,0.5803288,0.14357777,-0.15873376,0.24942726,0.35591742,0.034214918,0.06227574,-0.16133319,-0.26745537,-0.052443262,0.2659134,-0.036248337,-0.17511697,-0.10729042,-0.09681744,-0.17240983,0.08095405,-0.28048348,-0.2506738,-0.23885456,-0.2633414,-0.0788793,-0.048622873,0.23998062,0.01715441,0.052910578,-0.0020431608,0.25582007,-0.22402512,0.30261806,0.2470769,0.35079667,-0.09133759,0.093180455,0.14781778,0.090223484,-0.09148337,-0.11148436,0.089567214,-0.0858963,-0.071151495,-0.0726185,-0.06086371,-0.13670228,0.028780837,-0.08093108,-0.15163182,0.013412024,-0.03800387,-0.3916327,-0.46579978,-0.3719342,0.14276958,-0.04874658,0.04240407,0.38351774,-0.2512616,0.07531351,0.0621067,0.08220243,0.0015345466,-0.0957691,-0.060822964,0.016776504,-0.26143256,-0.19713299,-0.08987535,0.029797282,0.025525616,-0.13070664,-0.05702174,0.1155302,0.0029600072,-0.027936535,0.06397919,0.14910673,0.1552731,-0.029981816,-0.259109,0.0003982034,0.15597607,0.028570153,0.005747612,-0.3134662,-0.41541,-0.040850967,-0.21999569,-0.24953882,-0.30617103,-0.4496735,-0.32863572,-0.16283783,-0.059547894,-0.056493536,0.05139129,-0.06446122,0.0009171372,0.032533716,-0.012860569,0.10710329,-0.024865987,0.12138779,-0.08843227,0.0961412,-0.06252964,-0.060016807,-0.06282564,0.011336918,0.093389995,0.08082742,-0.21753888,0.026651114,-0.68632615,-0.23092847,-0.4287558,-0.4343805,-0.35269904,-0.3724072,-0.18443638,-0.027887953,0.15723468,0.09629749,0.059459955,0.06314202,-0.0817853,0.09725119,0.007256822,-0.06561159,0.03121062,-0.0030634068,0.023774702,0.16044429,-0.13449922,-0.28021103,-0.10913452,-0.014186503,0.10102375,0.17146511,0.13307871,0.13278942,-0.5300873,-0.13341314,-0.5091227,-0.32374883,-0.26589143,-0.26309875,-0.1829709,0.030850574,-0.05287954,-0.08661222,0.020256858,-0.06250674,-0.13879357,-0.08851742,0.047479134,-0.028531775,0.11308439,0.08096056,-0.047824144,-0.16327229,-0.3873447,-0.8292397,-0.67765236,-0.2029691,-0.28673705,-0.058139008,-0.13039169,-0.1774005,-0.09825059,-0.20229724,-0.38305372,-0.19543055,0.081769995,-0.059380356,-0.02006109,0.21005441,-0.001516604,-0.25915682,-0.09914491,-0.07977317,0.047756568,-0.045663398,-0.13594097,-0.13912041,-0.062457126,0.110613,-0.0078586405,-0.30482608,-0.41174677,-0.622962,-0.82104665,-0.47283003,0.21391624,0.095586374,0.16155718,0.020275388,-0.19414967,-0.25156373,-0.13415109,-0.038935453,0.18474989,-0.090082735,-0.10520365,-0.15887672,-0.18291324,-0.15609723,-0.0756844,-0.10456227,-0.016979003,-0.038305495,-0.12474811,-0.22022,-0.06682771,0.09974887,0.07943567,-0.31772694,-0.25867277,-0.44263926,-0.52012336,-0.48907998,-0.081646815,0.013066956,0.2654327,0.1360689,-0.4994922,-0.19497304,0.07221731,0.061180133,-0.010410032,-0.20786251,-0.13250616,-0.015371176,-0.09709225,-0.123680085,-0.184983,-0.118551984,-0.1695491,-0.2968893,-0.44446415,-0.34902567,0.07025876,0.08556567,0.18058716,-0.06230664,-0.19749516,-0.45540997,-0.31927848,-0.5605132,-0.043405555,0.0004834885,0.07577793,-0.08726066,-0.4504217,-0.019609623,0.17230764,0.07344781,-0.20495063,-0.16444303,0.02837922,-0.13427505,-0.16227148,-0.0339484,-0.08572709,-0.14941075,-0.20524552,-0.38900444,-0.71396524,-0.60119104,-0.17997567,-0.041563198,0.22217949,0.14600424,-0.12360683,-0.2152807,-0.16626416,-0.52910066,-0.034911852,0.10346379,0.25951993,0.030042943,-0.26961833,0.028827492,0.15090135,0.16798502,-0.11641725,-0.0875078,-0.10008934,0.00817961,-0.10202936,-0.016458616,-0.04575465,-0.021131605,-0.21142973,-0.271052,-0.5615985,-0.51656145,-0.1832479,-0.044425126,-0.022796627,-0.024977732,0.116462335,-0.077488594,-0.28761318,-0.1423274,0.31027317,-0.20147713,-0.13434511,0.05661458,0.13305587,0.38202205,0.15271874,0.089827694,0.090517454,0.07721583,0.1340779,-0.16519004,-0.115182035,-0.01221509,-0.048755243,0.014512642,0.017431222,-0.15443385,-0.6473373,-0.49316275,-0.05301055,0.05389995,-0.09886669,0.084372655,0.20034489,0.21916446,-0.047003604,0.48536834,0.32447422,-0.17475589,-0.19379994,0.17312407,0.005050332,0.078929044,0.26564804,0.20958446,0.27626526,0.20815842,0.025875928,-0.07982278,0.078482725,-0.002540386,0.16688801,0.088054486,0.03161551,-0.3744429,-0.71854895,-0.25904477,-0.013897399,0.15620662,0.11935424,-0.025022369,-0.0068077073,0.22759974,0.2729963,0.053866457,0.28431234,-0.026000809,-0.16765611,0.068001434,-0.032913927,0.071717806,0.17120342,0.25614873,0.31652176,0.14338061,0.29003957,0.09325121,0.1653587,0.15938602,0.26548934,0.1531006,-0.060839415,-0.37962374,-0.40716085,0.117181085,0.15768571,0.21431147,0.29449904,0.03383188,-0.17394443,0.009438462,0.7640768,0.59061056,0.2577719,-0.081957206,-0.10221552,0.12517594,0.002837316,-0.033520937,-0.046984926,-0.028904531,0.07621141,0.30447674,0.1828272,0.43585023,0.3576001,0.27651393,0.2743842,0.33817032,-0.124596596,-0.36410254,-0.015642462,0.39401767,0.29258928,0.17563927,0.113225885,0.08068441,-0.092979506,-0.030456444,0.56350213,0.11149013,0.44383866,-0.031197924,0.0047306665,-0.069472164,0.09787618,-0.10073029,-0.21635467,-0.20326552,0.06507972,0.085939504,0.21864049,0.10455741,0.11102855,0.32953438,0.31720823,0.08055277,-0.13260214,-0.14480625,0.45316836,0.4477549,0.2630761,0.03494779,0.17927822,0.12509353,0.124787256,0.11288658,0.64219415,-0.23913519,0.20043874,0.015069799,-0.023030378,-0.0068793115,0.1655944,0.11727493,-0.06919322,0.03909978,0.21444632,0.05203839,0.17687324,0.11166336,0.23239705,0.28588015,0.15957858,-0.059357725,0.03835827,0.14570747,0.3583637,0.31329775,0.19099456,0.30246577,0.19473232,0.15180743,0.23264231,0.2648853,0.7981509,0.4537618,0.11345958,-0.037553083,-0.11349123,0.46928126,0.39594954,0.38032997,0.08261019,-0.06616902,-0.011514212,0.11210061,0.04341595,0.014236577,0.2000133,0.19652905,-0.05233984,0.059620917,0.04109573,0.23166,0.28167182,0.43753812,0.43872792,0.15311891,0.22005561,0.33430377,0.3202803,0.6762083,0.61452097,0.40570274,0.13175249,0.12256636,0.07859881,0.19238092,0.5456611,0.35717312,0.411285,0.049467083,0.064738296,0.12118948,0.0861293,0.11609152,0.008090546,0.11225133,-0.13057676,0.10556011,0.0131908795,0.084506184,0.0618605,0.38226464,0.36084843,0.41655913,0.48702434,0.22105601,0.26358408,0.8461599,0.45478144,0.55980796,0.025573242,0.24627748,0.0015811329,0.21380867,0.28620628,0.31639126,0.5361392,0.06490125,-0.030310275,0.10816857,0.1732875,-0.105046645,-0.20255354,-0.13338313,-0.10965579,-0.2259227,-0.17452765,-0.048103623,0.028425748,0.18047096,0.1923699,0.39325136,0.4518855,-0.086544745,0.040757846,0.6447922,0.4317653,0.30455714,-0.027387077,-0.040889308,-0.024246277,-0.10106706,-0.3622032,-0.09386017,0.15742709,0.16799702,0.012469418,-0.16547509,-0.026807763,-0.14580445,-0.041831713,0.12815458,-0.1412411,-0.3268032,-0.1604953,-0.1382679,-0.19450632,-0.0059296363,0.24626625,0.10436321,-0.029729063,-0.044660214,-0.1301657,0.6750012,0.46881568,0.32718652,-0.056334008,0.02982269,-0.036449272,0.1540294,-0.43922332,-0.31069335,0.2183479,-0.024622738,-0.062060293,-0.18294033,-0.31212398,-0.27719107,-0.15959558,-0.14933656,-0.39811957,-0.5190661,-0.55632013,-0.43300062,-0.18326133,-0.07629384,-0.06377907,-0.57533795,-0.6252694,-0.4687647,-0.1434427,0.41022584,0.45089233,0.26162645,0.025230274,-0.071368255,-0.039980147,0.005709519,-0.25074163,-0.20469569,-0.14064287,-0.22787759,-0.26788765,-0.15218455,-0.51369995,-0.4701194,-0.027316377,-0.15680301,-0.2321409,-0.5534504,-0.9205315,-0.8265912,-0.6232148,-0.48633596,-0.4326573,-0.1876174,-0.09477636,-0.08452561,0.027807718,0.03498469,0.0990119,0.11155359,-0.026107548,0.0023681936,0.022344584,0.02581696,-0.015695984,0.19959864,0.24367042,0.13754594,0.041772462,-0.008348875,-0.2142938,-0.30599877,-0.36194625,-0.2983046,-0.7396966,-0.58944494,-0.5664916,-0.38960233,-0.32485306,0.17531197,0.32044345,0.15522788,-0.015825154,-0.009837023,0.10162058,0.38049924,0.07641693,-0.021245085,0.027406288,0.100450344,0.0070945816,-0.048203126,-0.030596692,-0.0711941,0.05048502,0.13626458,0.2054101,0.18033823,0.10561417,-0.1964815,-0.08682622,0.0058809537,-0.32997155,-0.25850737,-0.3958109,-0.03035355,0.11389663,0.44747794,0.30312777,0.068821676,-0.16990317,-0.08465051,-0.24652383,0.016673421,-0.088562965,-0.09607318,0.015369019,0.030685289,-0.03780206,-0.042315353,-0.024580661,0.031457514,-0.023585951,-0.005295908,-0.031355627,0.08719109,-0.036756624,-0.008001419,0.053770524,0.054954495,0.07352772,0.06640885,0.065182306,0.02698777,-0.05869567,-0.07105145,0.054795735,-0.0012380716,0.0048850044,0.07727485,0.006571156,-0.08015953,0.09593555,0.10493405,-0.031565372,-0.049521863,0.007631476,0.053110868,-0.035307642,0.036479503,-0.015265077,-0.07537274,-0.09017596,-0.035663955,-0.12081121,-0.14925553,-0.03381421,-0.2899408,-0.17232974,0.026703002,-0.22304174,0.0838802,0.0046328586,-0.16055512,-0.29750702,-0.13358076,-0.20027207,-0.17793404,-0.080701105,0.011286251,-0.09307122,0.040631622,-0.025217338,0.035300657,-0.10229697,-0.018918775,-0.05005108,-0.17966916,0.1408995,0.07668846,0.112358354,0.17015426,0.16283499,0.017411102,-0.10565648,-0.052244253,0.0032770543,0.019405447,0.08262872,-0.07160693,-0.0021498695,-0.29886973,-0.60989475,-0.5926456,-0.4691042,-0.48134866,-0.15104648,0.1479272,0.045674864,0.095458895,0.02745483,0.05781291,-0.10299919,0.35589334,0.10343523,0.21038133,-0.24214244,-0.227384,-0.18071131,-0.08380819,0.16344604,0.052726347,-0.11857732,0.0023905474,-0.037857395,-0.32224736,-0.20511183,-0.089268625,-0.07431924,-0.11385465,0.044171043,-0.28336573,-0.04282805,0.2758976,-0.22584108,-0.005552477,0.23516025,0.10302195,0.02866812,0.06828801,-0.098985575,0.38263947,-0.2692769,-0.29062524,-0.21828413,-0.015883075,-0.2620016,-0.21748237,-0.17046309,-0.16279441,-0.22787288,-0.11801663,-0.050731175,-0.13640139,0.06621599,0.047830414,-0.15367034,-0.14096774,-0.21133189,-0.015125033,-0.1762723,-0.049678527,0.356728,0.18567008,0.22240955,0.15608013,-0.35282636,0.0469425,-0.102701865,0.36659655,-0.099868335,0.15956715,0.117203064,0.10354099,0.008509835,0.088048264,0.14042087,-0.09291475,0.022959705,0.1281916,0.053915188,-0.08338543,0.1057185,0.051821284,-0.2529271,-0.16093425,-0.25972962,-0.04596567,0.28171438,0.350299,0.4551892,0.048239134,-0.19089177,-0.103326894,-0.053663578,-0.018482989,0.035377745,-0.053795442,0.3356589,0.34375933,0.20018,0.42655122,0.1317976,0.15708864,0.1036003,0.27589795,0.22067042,0.227942,0.01712846,0.006617895,-0.19373374,-0.20792507,-0.18576626,-0.13501127,0.093540005,0.09654579,0.086576514,0.113446265,0.046923574,-0.060769007,-0.37412694,0.38763458,-0.08383522,0.0061034774,0.3656882,0.38593096,0.25955895,0.13383815,0.29212916,0.16445355,0.09574792,0.03220748,0.15236652,0.21416205,0.094569065,0.15150093,0.15757596,0.04382548,-0.17140593,-0.06378367,-0.0620044,0.10270631,0.0757746,0.23702541,0.15526323,0.27665064,-0.039432526,-0.23676765,-0.38475916,0.21188754,0.09264867,-0.31167176,0.5227812,-0.032566965,-0.062262584,0.08626882,0.007008836,-0.008406707,-0.043389525,0.09842149,-0.05188616,0.21802495,0.21174009,0.21495348,0.31494775,0.13800499,0.08804072,-0.11169402,0.08924103,-0.03134707,0.022706494,0.14810658,0.101230465,0.062394857,0.20640501,0.04275006,-0.31167874,-0.18613243,0.14866328,0.20233059,0.3961936,0.10029633,0.032564897,-0.21707234,0.015617161,-0.022813568,0.055899378,-0.14640735,-0.086523615,0.059333447,0.0725711,0.24915414,0.22189908,0.4767372,0.47382143,0.19207434,0.24746355,0.12103156,0.013177247,-0.091066726,-0.14785449,-0.057156637,-0.29987615,-0.40835398,-0.6003676,0.13517796,0.36528867,0.21673346,0.4722218,0.2864137,-0.068122685,-0.33640173,0.14183615,0.14307076,0.28196558,0.04741504,-0.039884206,0.16799793,0.10404376,0.040909626,0.13700098,0.21472101,0.32793108,0.15803261,0.073895164,0.014259396,0.03927961,-0.18870609,0.07652638,-0.12632625,-0.43204316,-0.18499064,-0.011753865,0.35050464,0.12605879,0.087457456,-0.11186286,0.14939485,0.015502848,-0.052943658,-0.040592384,0.075430185,0.23334998,0.15465903,0.09223543,-0.111718245,-0.2930397,-0.46396676,-0.3089072,-0.1600042,0.05001196,-0.053838998,-0.11038186,-0.12981135,-0.122522034,-0.08966288,-0.01428092,-0.11605968,-0.18932506,-0.11304286,0.0703077,0.024346862,0.21848053,0.14821723,0.12160369,0.014254715,-0.12120173,-0.06469353,-0.26183397,-0.35122156,0.29688066,0.2781161,-0.12474188,-0.42194036,-0.605153,-0.7496849,-0.6470187,-0.33420894,-0.24856417,-0.32067588,-0.3098442,-0.30441052,-0.21725968,-0.150879,-0.0103865685,-0.36308694,-0.19656816,0.16682881,0.43697983,0.55532575,0.50718653,0.05115398,0.039290443,0.40252995,-0.24990696,-0.5308977,-0.43602148,-0.6218741,-0.62674284,-0.47772452,-0.61016357,-0.51100165,-0.6359935,-0.6019086,-0.370585,-0.20716174,-0.29413554,-0.28616056,-0.15848747,-0.24412414,-0.20680678,-0.05413048,-0.0756498,-0.20542853,-0.05918381,0.43595055,0.47197455,0.5089006,0.18849418,0.2507324,-0.14934267,0.04243232,-0.3828788,-0.79664606,-0.98058194,-1.1246195,-1.3223349,-1.234668,-0.97967285,-0.49752304,-0.22816761,-0.22232673,-0.04712679,-0.08549545,-0.27325594,-0.16791302,-0.14812042,-0.10564094,-0.05573245,-0.023502517,0.051556695,0.27255276,0.17410295,0.08189649,0.030240178,0.67720693,0.4268886,0.22748524,-0.076982595,-0.3236903,-0.29939467,-0.5160729,-0.9739653,-0.92937607,-1.1131878,-0.5434865,-0.44466048,-0.08983419,0.16701089,0.13879251,0.37129197,0.07656332,-0.16937196,-0.13898571,-0.13408464,-0.10002288,-0.16719814,-0.12716632,0.18918124,0.17540915,0.15144692,0.111994006,0.060649958,0.49121732,0.40272656,0.17271107,-0.21362342,-0.21909228,-0.23879543,-0.6891778,-0.7016903,-0.23322238,0.012287269,0.13898064,0.27861503,0.19345199,0.0761719,0.2982288,0.36936674,0.13024388,-0.072710216,-0.01753135,-0.13575253,-0.16644922,-0.19713885,-0.115269184,0.09484857,-0.03283308,0.11041138,-0.13038863,-0.025770966,0.676499,0.39935148,0.0077395854,-0.12527992,-0.10437966,-0.04230053,-0.5026409,-0.32143122,0.21646763,0.21719772,0.21075855,0.3039737,0.18889248,0.22174415,0.1225368,0.21123415,0.12502657,0.00680069,-0.19324976,-0.25514838,-0.015282718,-0.25873515,-0.22483814,-0.007897275,-0.05181664,-0.003165364,-0.024873143,0.54149204,0.733497,0.49787343,0.1693865,-0.046141334,-0.41898704,-0.050255395,-0.34179837,0.010757953,0.22066064,0.295143,0.13147894,0.13608561,0.23840961,0.19050889,0.18046005,0.106263414,0.21894123,0.12280652,-0.14796712,-0.21384826,-0.25899133,-0.26483613,-0.108725496,-0.12775634,-0.032096956,-0.046664067,0.2523108,0.4603516,0.6924569,0.5151727,-0.04755199,-0.14825474,0.21436687,-0.12349661,-0.14415763,-0.12106536,0.100072674,0.04758329,0.16598853,0.13688777,0.11785406,0.1469161,0.18500791,0.45280656,0.21556437,0.123937204,-0.04551002,-0.15500134,-0.27540353,-0.30074176,-0.13181923,-0.2642582,-0.20984319,-0.0069685015,0.08678358,0.70297724,0.5734635,0.42117926,0.0060401335,-0.34133378,0.31394252,0.048738077,-0.243529,-0.101696394,-0.021941647,-0.0065114675,0.15450716,0.0631776,-0.01020523,0.12742962,0.3397236,0.28386214,0.187445,0.19519562,0.09187502,-0.18474711,-0.35160264,-0.27172872,-0.29260132,-0.19265758,-0.12825227,-0.22444421,-0.10303368,0.18550016,0.43736374,-0.0013783679,0.07619324,0.19196151,0.06415587,-0.03772088,-0.076504886,0.08268954,0.09428936,-0.08212963,0.10216943,0.1913267,0.21758445,0.11143823,0.08899608,0.05865979,0.14876692,0.21082158,0.20489918,-0.03193189,-0.10316604,-0.21676946,-0.19767435,0.038846366,-0.06792166,0.017864415,0.18483372,0.14821485,0.018672734,-0.056516204,0.09763051,0.068612106,0.17035933,-0.06676555,0.07123737,0.3802172,0.3260448,0.18649952,0.32674915,0.22139688,0.057938218,0.020896783,0.05747521,0.016215032,0.018612752,-0.019382363,0.10732564,-0.018571563,-0.1826635,-0.32461172,-0.12984598,-0.0067243017,0.05053657,-0.21674578,0.049629383,0.28860116,-0.39372295,-0.0038384881,-0.044320133,0.010182413,-0.12538065,-0.4178207,0.097206324,0.015408184,0.2403563,0.15651776,-0.05805257,0.09083967,-0.057723176,-0.043736693,0.12174413,0.059531108,0.041087218,-0.14759484,0.21012524,0.036825504,-0.30630365,-0.040893666,-0.17840093,-0.16977233,-0.17131391,-0.40127844,-0.21398613,0.06326757,-0.06484947,0.057437092,0.032822285,0.020491451,0.23572166,-0.4245234,-0.28044927,-0.17321663,-0.10745279,-0.14697765,-0.042959016,0.060622275,-0.07804994,-0.0074784253,0.043419003,-0.0036738098,0.03565673,-0.3195049,-0.2621839,0.061904423,0.12838575,0.15246347,-0.11676401,-0.105330355,-0.514284,-0.43171394,0.43294197,0.49113992,0.15752895,0.052698854,-0.02267388,0.0069754436,-0.24037822,0.39688227,0.19871643,-0.13227794,-0.19093205,-0.13586035,-0.19022337,-0.13083762,-0.36124223,-0.22933798,-0.122573934,-0.019142529,-0.105080634,-0.07450448,-0.13868107,0.048457634,0.11216591,-0.11103302,-0.100710206,0.013684799,-0.03499772,-0.26211208,-0.06445911,0.10930551,0.17650974,-0.0071954117,0.060084213,0.062266957,0.0061022863,-0.11719228,-0.4246799,-0.41018367,-0.34541613,0.099698536,0.31834784,0.18557988,-0.22637878,-0.2856855,-0.45961177,0.045108993,0.056468967,-0.11688392,-0.35169807,-0.42054,-0.38973856,-0.279479,-0.45666155,-0.49139634,-0.28775084,-0.07762181,-0.11701345,-0.011547629,0.0072385105,-0.037464757,-0.031281024,0.047146425,-0.023755131,0.053541552,0.30131194,0.38701168,0.121554844,-0.15099196,0.07400315,0.32884264,0.47112468,0.039801612,-0.11774031,0.4811533,0.27023363,0.7287014,0.71971023,-0.021117998,-0.25764108,0.022091947,-0.21566144,-0.21284357,-0.20030929,0.14999786,0.055782896,-0.10179562,-0.03849686,0.057834536,0.003935092,-0.01776532,0.11827127,0.067706645,-0.014715765,0.044244755,0.0005452572,-0.005628544,-0.01676022,-0.09788373,0.004164232,-0.011627334,-0.046114404,-0.011715336,-0.04160738,0.086158305,-0.03861114,-0.093598604,0.029897936,0.033714518,-0.031089019,0.101199314,-0.010075364,0.020851117,0.005297193,0.03646643,0.1718456,0.035289124,-0.09572149,0.005245526,0.027761335,-0.030741,0.065060765,-0.10020612,0.030207422,-0.009198996,0.02156729,-0.07936907,0.07369424,0.01668481,-0.24285361,-0.08454524,-0.28804618,-0.45188227,-0.23185721,-0.31497678,0.116653524,0.2217816,0.19055009,0.117922276,0.026560068,-0.02594544,0.045729373,0.086392134,-0.08052085,-0.03960386,-0.015995346,0.08080914,-0.009266985,-0.31659347,-0.08988307,0.021951815,0.036719173,-0.071048446,0.16920333,0.27085176,0.1502274,0.16333012,0.2703299,0.09483852,0.13747853,0.25703934,0.23421076,0.2369154,0.040323142,0.33421296,0.4348716,0.37508476,0.38948733,0.37983474,0.050430585,-0.08174595,0.02410544,-0.12113032,-0.09479584,0.103968516,-0.19528285,-0.32604012,-0.05441351,0.0925793,0.14030135,0.4022938,0.44700322,0.5854256,0.5970332,0.58800966,0.3716925,0.32158402,0.34559217,0.3425642,0.4120002,0.3344634,0.42017102,0.48592627,0.5554316,0.2555734,0.04769851,0.48309228,0.5348505,-0.21823126,0.058305796,0.024202093,0.083442956,0.05823703,-0.2865737,-0.13828386,0.23963822,0.331258,0.6194488,0.6533873,0.7377435,0.79555786,0.88555384,0.75774693,0.7756842,0.6754811,0.3083833,0.26273257,0.3000057,0.0252684,0.3079522,0.45824116,0.54724586,0.43667832,0.16961014,0.18776956,-0.031990025,-0.1728238,-0.24027401,0.2874925,0.0065327333,-0.0014723762,-0.0348042,0.27983242,0.3248621,0.29154056,0.41127005,0.28656054,0.52970964,0.5440891,0.58140904,0.69035786,0.63174736,0.25334707,0.08815166,0.25750494,0.33721334,0.42573938,0.5186548,0.49081418,0.30178425,0.27005407,0.17458375,0.2612436,0.18534319,0.18280976,-0.0020761576,0.32376963,0.076685175,0.21577764,0.08253594,0.16109884,0.25883868,0.06276687,0.10664956,0.035107296,0.3387763,0.36182633,0.19470176,0.266637,0.27395123,0.22451691,0.12840678,0.18735433,0.19332956,0.3062225,0.18069483,0.1290087,-0.13230485,-0.17357573,-0.16154352,0.03448859,0.08805432,-0.068725474,-0.1260624,0.10282808,-0.009156151,0.38137785,0.059437595,-0.07555279,0.31362143,0.13000616,0.039476484,0.15370956,0.3404562,0.12069157,0.17225133,0.13854603,-0.09269333,-0.17399748,0.06134571,-0.100849696,-0.12283235,-0.070290454,-0.10582929,-0.116149776,-0.11113534,-0.29805905,-0.33458963,0.0057863137,0.07540034,-0.30360213,0.05772338,0.18081774,-0.36461863,-0.077173814,-0.07391644,-0.07315761,0.47254112,0.20775372,0.06938586,-0.08345493,-0.14788333,0.11039696,0.46026388,0.3425942,-0.14021912,-0.21511532,-0.1630267,-0.20962557,-0.19381776,-0.3531118,-0.17772284,-0.18536837,-0.0866998,-0.07422715,-0.052264277,-0.23546322,-0.6974947,-0.494235,-0.22125202,-0.29391158,-0.25540522,-0.28606305,-0.11886154,-0.11369038,0.46606323,0.065330476,-0.06298566,-0.24936426,-0.049367674,0.18513983,0.42939967,0.29312012,-0.13975866,-0.21128549,-0.33508867,-0.2675905,-0.12070062,-0.33543375,-0.33853152,-0.30698645,0.016807174,0.11922919,0.045423303,0.033092458,-1.0514661,-0.72526973,-0.5166245,-0.39304987,-0.15357478,-0.31102523,-0.50607806,0.16592576,0.20588993,0.14959824,-0.14712784,-0.12940791,-0.081948705,0.08610178,0.2502848,0.100389406,-0.06818983,-0.38806105,-0.5071085,-0.43624985,-0.22003712,-0.23428668,-0.37984112,-0.36398247,-0.03590373,0.06569662,0.15568402,-0.117456585,-0.60204023,-0.6609839,-0.6291721,-0.41142818,-0.1458565,-0.40791154,-0.59989464,-0.3737717,0.028567117,0.32213506,-0.018578418,-0.17612979,-0.12397454,0.16491005,0.09918334,-0.17264377,-0.1567389,-0.36611012,-0.39792237,-0.21388088,-0.039381847,-0.065701075,-0.023084017,-0.026273955,-0.0009556677,-0.12007148,0.107309416,-0.44243148,-0.6543728,-0.07405271,-0.67265934,-0.39888456,-0.22170386,-0.20738381,-0.52759326,-0.4038176,-0.115693524,0.1735524,-0.1649127,-0.36129537,-0.15755396,-0.03776865,0.0166959,-0.09860735,-0.11286021,-0.24704053,-0.18964124,-0.07504383,0.29823637,0.18803687,0.19013706,-0.0753086,-0.0030208146,-0.012888056,-0.18579672,-0.36553416,-0.15028158,-0.06629601,-0.6946293,-0.46372768,-0.11082828,-0.20320211,-0.6249913,-0.26341602,-0.17600793,-0.076352656,-0.2503951,-0.13728169,-0.053018652,-0.11549582,-0.044869058,-0.07126931,-0.05014445,-0.07263904,-0.104049414,0.08714226,0.17126197,0.30418676,0.24583273,0.1571556,0.07244451,-0.09499844,-0.2796725,-0.3213424,-0.49103555,-0.35721287,-0.18401045,0.1664864,-0.030031044,-0.13558218,-0.3564442,-0.17242904,-0.03201958,-0.21431004,-0.16256726,-0.089750126,0.03615638,-0.0077044102,-0.15519626,-0.05020341,0.04889471,0.06378892,0.0016041712,0.12647958,0.11405173,0.12074215,0.06459752,0.156533,0.19999972,0.03702069,-0.35434797,-0.28757322,-0.57334334,-0.056673437,0.24783033,-0.018806016,-0.11996576,0.010678155,0.34441894,-0.13469155,-0.082235806,-0.051066473,-0.14156449,-0.059982464,-0.01852144,-0.021369917,-0.14684403,0.071401395,0.14534993,0.10480356,-0.045902632,0.16553876,0.17173423,0.014193027,0.021726811,0.15229736,0.2586909,0.1775296,0.13490433,-0.104907416,-0.3585368,0.100735016,0.55772954,0.16178,0.10628046,0.19519694,0.30523756,-0.060737386,0.044527598,-0.13258931,-0.084091604,0.11030377,-0.18186133,-0.024724243,0.04875054,0.28122228,0.25843447,0.0535658,0.14923936,0.3044055,0.28200322,0.24282144,0.32841057,0.17884152,0.31736806,0.12674129,0.16615228,0.124318294,0.012583331,0.21540464,0.50399536,-0.11295916,-0.01502714,0.074278235,0.2906271,0.064738296,-0.012314948,-0.09292234,-0.15581858,0.057184365,-0.2853046,-0.14375156,0.035248652,0.16608787,0.20573966,-0.11001776,0.02566285,0.25931647,0.22482395,0.25152138,0.16422056,0.24050827,0.26100853,0.12411305,0.022938065,-0.03883075,-0.36866912,-0.05762988,-0.21190141,-0.28272057,-0.41910887,-0.006383549,-0.03580758,0.40953448,0.1916332,0.12181743,0.016944783,0.09726912,-0.2771488,-0.06369335,0.084260374,0.076738015,0.0051482497,0.083197735,0.21519664,0.4805143,0.25321552,0.16461313,0.2677263,0.15387641,0.0798757,0.24565029,0.1543832,-0.07092001,-0.42051262,-0.14439481,-0.4517713,0.28523916,-0.0103504555,-0.6100717,-0.23071606,0.40030867,0.36983758,0.17965208,0.06940262,0.0050859447,-0.17688516,0.111136205,0.1726321,0.090031326,0.033777233,-0.0037060576,0.34969306,0.37397057,0.18932608,0.080046505,0.31070694,0.42175823,0.18760185,0.2798317,0.13307877,-0.14293188,-0.42416295,-0.27146146,0.17957011,-0.075546,0.069657095,-0.35669136,0.08832041,0.48449087,0.5111268,0.31960618,0.13961527,-0.09380517,-0.24991521,-0.12858443,-0.03847703,-0.0636319,-0.066588916,0.20133452,0.389038,0.19322394,0.22806364,0.038826045,0.46450648,0.37801263,0.21519235,0.013296982,-0.0325602,0.07893631,-0.07858648,-0.37678772,-0.14527112,-0.11428938,-0.0025796206,0.18670507,0.11322145,0.33731356,0.40464085,0.34355423,0.1123176,0.020240271,-0.018992025,-0.21718375,-0.16697024,0.1317265,0.1640354,0.1412044,0.31087404,0.16961391,0.34906825,0.2845373,0.52028936,0.071403556,0.00043549697,0.081787854,0.0797862,0.09067898,-0.15565155,-0.45755255,-0.23625402,-0.041697778,-0.069425866,0.02128563,0.3506051,0.2766953,0.3812655,0.35162407,0.19468495,-0.070326634,-0.11410058,-0.25108883,-0.035538446,0.11038536,0.08897832,0.07605458,-0.056599844,0.17603455,0.3604655,0.1791051,0.14948064,0.076668955,-0.008630636,0.10112531,0.021963613,-0.20315342,-0.19763288,-0.23019655,-0.2761006,-0.035365168,0.06387896,-0.012588172,0.4400419,0.40635133,0.28145632,0.24551402,-0.011493384,-0.08650714,-0.14858282,-0.25752398,-0.19317059,-0.021028796,-0.0049878415,-0.04272077,0.0008032195,0.08924987,0.23664533,0.06838288,0.13444251,0.08279055,0.034509826,0.36202306,0.025264088,-0.2023131,-0.3086595,-0.20884737,-0.14984187,0.007655575,-0.0006045789,-0.022937002,0.27241856,0.30963954,0.2773384,-0.06676502,0.10347248,-0.14616308,-0.030577227,0.06988945,0.050120465,-0.16985816,-0.1531604,-0.091980994,-0.03894544,0.018424332,0.2917453,0.19137707,0.3018188,0.12393927,0.16780214,0.28222227,-0.061457727,-0.31538105,-0.48697966,0.38409317,0.11003689,-0.07318342,0.05122977,0.025075512,0.1547738,-0.40201256,0.1257084,0.4123417,0.48661822,0.16891852,0.18625472,0.20048638,0.26127172,0.14093079,0.16533168,-0.0034566692,0.031317275,-0.1179136,0.037589125,-0.024564924,0.04695387,-0.22415084,-0.2126467,-0.28933787,-0.48622,-0.44481903,-0.47140872,0.13231292,0.0558408,0.04669485,-0.0915279,0.012382199,0.112728775,0.08317976,0.4214963,0.519717,0.46480477,0.33100846,0.2352538,0.114765696,0.346748,0.22098073,-0.20019852,-0.05813441,0.059162207,-0.092933916,0.08222739,0.22304642,0.14119256,-0.2023164,-0.13479759,-0.29261684,-0.46024817,0.03518682,0.119501136,-0.08859435,-0.060380682,-0.028157678,0.030563219,0.082957506,0.06023688,0.067309834,-0.0895365,-0.11122244,-0.13830289,-0.23132986,-0.3426997,-0.32423055,-0.4824425,-0.23838627,-0.13329443,-0.3379215,-0.4117248,-0.1887251,-0.23133224,-0.38014996,0.13003528,-0.019494992,-0.09623915,-0.012163344,-0.009715042,-0.21920782,0.005465501,-0.04802341,-0.007073626,0.061323676,0.032135602,0.013767139,-0.0005569272,0.029838344,-0.114705384,0.014781503,-0.077878505,0.057929263,0.019600915,0.0148575185,0.0060736854,0.024865149,-0.06638697,-0.13420981,-0.14392488,-0.106864676,-0.012216654,-0.028285397,-0.056419037,0.05078683,0.011965779,0.061491072,-0.08824592,-0.018318433,0.02889764,-0.039874915,-0.018672029,0.009216329,-0.01861851,-0.034510296,-0.019830361,0.037936,-0.1984162,-0.05073645,-0.25610533,-0.15010335,-0.16709056,-0.16159908,-0.17894673,-0.2789809,-0.53378004,-0.5158516,0.31638902,0.016452642,-0.3297152,-0.25429374,-0.30503783,-0.24693567,-0.32383773,-0.12255364,-0.19730347,-0.21942623,-0.028405152,0.04766841,0.0118866125,-0.038375117,-0.14671676,-0.0797403,-0.05747661,-0.17890447,-0.21476486,-0.20133509,-0.3166117,-0.39240262,-0.5101474,-0.48370218,-0.43568513,-0.65544945,-0.3493851,-0.08786209,-0.16854925,0.18568414,0.3102961,0.087529264,0.050408088,-0.011442601,0.07269288,-0.1968056,0.0015822031,-0.14823414,-0.2201349,-0.06892396,-0.10928615,-0.0015562648,-0.031730738,0.022849675,0.32295606,-0.13110784,-0.1785597,-0.2533386,-0.50693774,-0.67235035,-0.7875826,-0.717411,-0.5813354,-0.49446374,-0.34409332,-0.44944146,-0.21994793,0.16615303,0.23481503,0.33600882,0.3711109,0.35322112,0.3210825,0.32526886,0.107935816,0.0015531672,-0.29182622,-0.2234628,-0.1626659,-0.042863127,-0.013090282,-0.01938205,0.3562254,0.41070873,-0.10639778,-0.09758097,-0.29889342,-0.33344415,-0.25483897,-0.34822008,-0.15738428,0.012639172,0.17865269,0.18963993,0.24061467,0.29305455,0.59106934,0.33249554,0.40700415,0.41776785,0.2731587,0.23404461,0.24616005,-0.18893108,0.027274271,0.043449715,0.0049954522,-0.27271974,-0.08622212,-0.08544116,0.13027075,0.2720038,-0.009529972,0.04809235,-0.017922001,-0.014469177,-0.08358509,-0.118398115,0.004459977,0.052546423,0.14869484,0.046738546,-0.11599098,0.1517743,0.24042974,0.18822022,0.25436345,0.2437984,0.06772279,0.22578464,0.26624295,-0.020943152,-0.062965445,-0.17095698,-0.19738059,-0.25719538,-0.012230727,0.25520635,-0.20386484,0.5275213,0.06327781,0.08622861,0.08244983,-0.015685672,0.23571652,0.15672706,0.37504777,0.26690608,0.29827508,0.0581548,-0.021739254,-0.18277487,-0.07288325,-0.17673296,-0.15558505,-0.15764803,-0.015429133,0.123972274,0.17298743,0.16378556,-0.16401847,-0.39722085,0.049432896,-0.24571869,0.022617359,0.39032832,-0.27630672,0.39090854,0.06893279,0.0384463,0.18023793,0.11511107,0.112321645,0.11471704,0.21671261,0.3877085,0.3221023,0.22882017,0.042134278,-0.2568689,-0.3890708,-0.29349703,-0.121909864,-0.029785072,0.020283924,-0.017249364,0.081702255,0.14193183,-0.4436675,-0.7256335,-0.06232799,-0.14835739,-0.41414815,0.010573181,-0.28081277,0.24041162,-0.0715293,0.10441766,0.21097444,0.27675033,0.14935291,0.08940645,0.3162695,0.2453675,0.16057234,0.010407032,0.0011833351,0.04323027,-0.22670047,-0.13591257,-0.04316931,-0.15223043,0.021514999,0.0032068745,0.24559963,0.0021317215,-0.633877,-0.44227383,-0.20795405,0.04107457,-0.026731785,0.15913899,-0.103052504,0.09465129,-0.15843114,0.26717737,0.32814428,0.23629612,0.24028221,0.16346134,0.03127404,0.057313554,-0.016571194,-0.05230649,-0.039385285,0.09919391,0.05390096,-0.018021856,-0.040799923,-0.20918074,0.1196646,0.2585916,0.20391172,-0.19655858,-0.8824292,-0.74602324,-0.14227962,0.033516396,0.08712846,0.08715129,-0.1324185,0.13007984,-0.08089694,0.018885966,0.16591685,0.35008797,0.2560808,0.13645373,0.08594832,0.09525467,0.059881493,0.04077351,0.024282696,0.3342138,0.2408487,0.22599097,0.24940385,0.27904996,0.17887755,-0.041532554,-0.05689422,-0.83449334,-1.3480005,-0.62418455,-0.111494645,0.407387,-0.021659374,-0.13983424,-0.16200769,0.21741313,0.12275782,-0.035110492,-0.036378607,0.36609095,0.20760377,0.11189797,-0.0907086,0.16160557,0.08007767,0.18841541,0.5395407,0.5313816,0.5533279,0.5386711,0.5234828,0.118516184,-0.030470619,-0.4227291,-0.48795936,-0.8034766,-1.1033515,-0.5903639,0.063143216,0.46050185,0.12604171,0.24508637,-0.09177132,0.35788527,0.046330985,-0.12185358,-0.035740834,0.2808864,0.1680999,-0.03419514,0.124844424,0.085657105,0.2913647,0.15916693,0.44553065,0.48909336,0.46372455,0.35153016,0.30611268,-0.018529626,-0.3412401,-0.4214418,-0.48555732,-0.61595213,-0.43059954,-0.05724594,0.28357598,0.43981072,0.036586657,-0.016968064,0.12766747,-0.05409391,-0.052433517,-0.09602361,0.11762674,0.10933056,0.07235211,-0.00015401478,-0.14448091,-0.015429993,-0.05621248,-0.08892554,-0.008871044,0.19353426,0.16217345,0.2923202,0.010501873,-0.22299215,-0.16313325,-0.24817482,-0.19149439,-0.38125068,0.03139216,0.2486834,0.25878975,-0.20601457,-0.027573524,0.28327128,0.27389383,-0.15746213,0.044834886,0.11460924,0.25273576,0.102898605,0.22889234,-0.0441711,-0.27355778,-0.22611654,-0.2530682,-0.17594807,-0.091150925,-0.034926794,0.02629267,0.27118576,-0.06600666,-0.15840892,-0.35989752,-0.0942351,-0.030024856,0.09003122,-0.018251894,0.02217053,0.045314163,-0.22280154,-0.15393147,0.20917678,0.529772,-0.004159626,0.13965303,-0.08737515,0.14651054,0.03802972,0.11565254,-0.003343222,-0.27208608,-0.21681763,-0.36814174,-0.030947702,0.10836752,0.1579709,0.12074071,0.18268935,-0.16094744,-0.027040064,-0.19926843,0.038534258,0.12226952,0.15640385,-0.21556552,-0.0763395,0.56756866,0.33914945,0.12912074,0.27701047,0.4086675,0.0518528,0.14044048,-0.16334742,-0.08383866,0.0547434,0.013769997,0.14167312,-0.30897307,-0.30417085,-0.11475378,0.25818777,0.023580115,0.09718577,-0.12705521,-0.052299038,0.06282632,0.022813872,-0.049856696,0.06985774,-0.10347022,0.1657925,0.0055394834,-0.42030376,0.006779724,0.011187408,0.01950049,0.20225033,0.44129384,-0.039621186,0.21978445,-0.16517545,-0.094203934,-0.07689915,-0.12547678,-0.113128275,-0.36423194,-0.2453402,-0.049749848,0.25654864,0.03848623,-0.09078722,-0.07583609,-0.06483623,0.09992335,-0.0127955,0.105174,0.10618205,-0.017445896,0.21095589,0.25637293,-0.23600747,0.43690622,-0.426567,0.18829994,0.21455184,0.6420891,0.16588983,-0.014713542,-0.11433866,-0.1683896,-0.28850502,-0.101897426,-0.20904854,-0.16095297,-0.24983364,-0.14450954,0.059441265,-0.07868961,-0.31603965,-0.1606352,-0.003372754,-0.031843733,0.09086954,0.12592085,0.04794395,-0.113031834,-0.119320035,0.0070095374,-0.34203145,0.37466747,0.28660148,0.0078164,0.009059196,-0.040637422,0.08721964,-0.10611907,-0.103236295,-0.0831863,-0.014815677,-0.046665166,0.031241091,-0.09891888,-0.38316196,-0.28109416,-0.028552819,0.0037837292,-0.20900261,-0.12981078,-0.07507476,-0.013406701,0.048110206,-0.0044895387,0.063217506,-0.07898663,-0.10916225,0.0135065615,0.02774261,0.29204342,0.03000228,-0.04535432,-0.07097789,-0.19918543,-0.111526705,-0.14924511,-0.3114638,-0.11824802,-0.14795351,-0.0974357,-0.054823726,-0.16535577,-0.28386438,-0.16013019,0.0806131,-0.143731,-0.14526053,-0.0037661726,0.09773758,0.08254502,0.10478403,0.18556195,0.10504605,-0.12858495,-0.21664692,-0.37398094,-0.4810699,0.29599428,0.08855217,0.09101992,-0.08543514,-0.11992262,0.16194165,-0.25017396,-0.15753382,-0.093924224,-0.24154574,-0.2814178,-0.35281968,-0.10098292,-0.12352514,-0.10916768,-0.06733722,-0.12047073,-0.03805579,-0.07477979,-0.010684822,0.17790636,0.10175505,0.060194828,0.020051477,-0.31935686,-0.34522408,-0.41504192,-0.1588064,-0.3618855,-0.03633093,0.090349466,0.043305892,-0.23774736,-0.0491366,-0.0065054283,0.30510417,0.100862294,0.021024318,-0.21545044,-0.23462556,-0.09905926,-0.007931796,-0.11034379,-0.14671247,0.01841874,-0.14433159,-0.10548789,0.00056354026,0.2138844,0.13829078,0.1146517,0.09927083,0.000406018,-0.16705295,-0.56532055,-0.15313044,0.18844464,0.05514601,-0.08191051,0.129013,0.2991154,-0.2582594,0.011441725,0.2857729,0.21018787,0.32878318,-0.14733356,-0.12003279,0.124249235,0.32069644,0.1534395,0.18304253,0.051592097,0.22455297,0.18162738,0.2978083,0.18928742,-0.025628023,0.04965973,0.24583982,-0.0649174,-0.27852356,-0.5980454,-0.013841439,0.41143042,-0.016876847,-0.002816553,0.0075721378,0.39853895,0.51556206,0.27215022,0.2067855,0.17715043,0.18629481,0.021062735,0.065335765,0.18696906,0.33876124,0.08314909,0.2853268,0.1503523,0.15920523,0.1447412,0.099684805,-0.06174437,0.014474716,0.04554251,0.23727867,-0.077892974,-0.29815364,-0.8074357,0.14190535,0.23155166,0.027122848,-0.00718977,-0.09231876,-0.18469152,0.30988994,0.16225687,-0.103509404,-0.085676,0.0013726251,0.13482378,0.1341528,0.27153397,0.14912932,0.07343765,0.024913264,0.2597583,0.30253246,0.36325955,0.2192939,-0.24219392,-0.50992393,-0.36592096,-0.22676006,-0.19748025,-0.29330647,-0.47680902,-0.061477568,0.12874775,0.042949732,-0.028209629,-0.017936377,0.10791365,-0.23803101,-0.4155125,-0.42870504,-0.43167776,-0.15705511,-0.090383686,0.07074838,0.12734675,-0.1905602,-0.5971369,-0.20974141,-0.063257374,0.058052167,0.1741623,0.067818664,-0.3637395,-0.37682,-0.25124156,0.2521385,0.06957318,-0.020726575,-0.21266747,0.07034638,0.07631535,0.019209096,-0.014554102,-0.07405533,-0.096556045,0.014320432,0.17042634,0.15571326,-0.1742418,-0.18023168,-0.16783085,-0.0116841765,-0.13530152,-0.10074398,-0.1243116,0.18341887,0.08876315,0.11861296,0.014757931,-0.09583637,-0.23936246,-0.10575513,-0.08708473,0.16608031,0.09858638,0.20299879,-0.017263759,-0.029143412,-0.043323256,-0.006041988,0.037411664,-0.015323029,0.11309373,0.023030702,0.085482806,-0.03241551,0.05409128,0.038387034,0.04382696,-0.009555411,-0.05035715,-0.034559507,0.0074834977,-0.0838379,-0.01617968,-0.051320735,-0.03975998,0.061042883,0.013583008,0.004576209,0.08002469,-0.04936602,-0.012111641,-0.044347152,0.0142195,-0.019846983,0.021914015,-0.004986859,0.0075379047,-0.10987201,-0.029805848,0.07650759,0.044618696,-0.02573935,-0.22454344,-0.17874387,-0.17015311,-0.18324172,-0.22363462,0.020913973,0.06436541,0.078897335,0.26897883,0.12233202,0.20019549,0.11308273,-0.12711842,-0.22470854,-0.3088745,-0.13005044,-0.18643999,-0.25887892,0.027377497,-0.044189822,0.0405914,-0.00018144932,0.004736068,0.030449495,-0.025328359,0.0926605,0.19856906,-0.2969399,-0.33967796,-0.28950322,-0.41951412,-0.6218964,-0.56599694,-0.51678586,-0.58641535,-0.39666504,-0.16918191,-0.20703457,-0.061879527,0.06948214,-0.15579225,0.0794669,-0.12184191,0.059859406,0.041508533,-0.26900804,-0.44239065,-0.40234423,-0.03528334,-0.025702503,0.00289005,0.0746874,0.12803315,-0.22300094,-0.3915482,-0.39766315,-0.39198104,-0.10383771,0.036232293,0.0074816574,0.049532834,-0.18786712,-0.37205702,-0.19551632,0.03219995,-0.18500742,-0.024021167,-0.035581518,0.037618384,-0.22036684,-0.018361932,0.034640737,0.17560585,0.17225006,-0.19344169,0.019546235,-0.21632755,-0.038886487,-0.009346301,-0.026652206,0.2397375,0.0041297018,0.16686611,-0.19534115,-0.30262962,0.15938912,0.21689752,0.18315479,-0.09036353,-0.083738886,0.030243954,-0.035531253,-0.018132431,0.105530016,0.19582048,0.13219741,0.20694153,0.23020452,0.2201128,0.32631353,0.34798306,0.060842317,-0.059510835,-0.065307125,0.01219607,-0.14409749,0.08863196,-0.040342577,-0.41386774,-0.39153028,-0.37903428,-0.22086027,-0.026644211,0.26458675,0.3836584,0.09423847,-0.02875832,-0.10822636,0.0049399515,0.09784361,0.14291896,0.11923995,0.076753356,0.19849037,0.2708871,0.16678225,0.10358369,0.081236854,0.12524407,0.02637839,-0.31313217,0.08010581,-0.15002576,-0.10066334,0.06327409,-0.15464546,-0.04167123,-0.19313051,-0.5275123,-0.24804302,-0.057648595,0.26083001,0.36947948,0.1405862,-0.08577424,-0.09082821,0.22479385,0.22287722,0.403983,0.116402306,0.099309124,0.2539167,0.14647444,0.33020762,0.1986537,0.39579397,0.45415562,0.21579354,-0.27260584,-0.4992782,-0.22253577,-0.11342702,-0.036025017,0.03657079,-0.074094504,-0.16381797,-0.44308168,0.030809749,0.08390961,0.2228249,0.16964996,0.00744704,-0.010103405,0.05403778,0.160898,0.45918155,0.2352431,0.34880522,0.369643,0.32655,0.45475575,0.43562484,0.260901,0.34930262,0.39489743,0.53267884,-0.013657107,-0.23382199,-0.15583308,-0.16890848,0.29204816,-0.10879517,0.09825644,0.048163965,0.07742992,0.15631987,0.11488198,0.19219124,0.17674905,0.042068947,-0.058461104,0.016047489,0.1869203,0.27865133,0.34545073,0.32921138,0.2582731,0.23329446,0.40526262,0.2432512,0.106792614,0.24086271,0.2571542,0.13612282,0.05830293,-0.030879812,0.22463001,0.04489577,0.10008957,0.26535153,0.101045035,0.1533239,0.0058497884,0.015229576,0.19530873,0.14824224,0.10473513,0.103039816,0.019635493,0.05423831,0.17002669,0.3434005,0.13400404,0.13432461,0.08467981,0.11134861,0.19682956,0.19605589,0.17814353,-0.08774997,0.033036616,0.27417818,0.11471703,0.17763074,0.106826,0.2930988,0.13216208,0.13666135,0.46864,-0.1886149,0.037307516,-0.2473006,0.071096115,0.060472902,0.03782127,0.24854739,0.08383223,-0.050011445,0.19760904,0.31592748,0.12436455,-0.10379575,-0.30065888,-0.17573604,0.2057015,0.2897183,0.07698676,-0.094223805,0.14273794,0.025011517,-0.18750978,-0.05306826,0.058018718,0.44907758,-0.05615532,0.3029658,0.4842094,-0.096672356,0.031786636,0.109112985,0.3647037,0.17940176,0.24547292,0.31422985,0.11722859,-0.0071734716,0.21332712,0.270669,0.069191225,0.0570611,-0.23424649,-0.25595292,-0.12784341,0.116081975,0.08126071,-0.17784299,0.04586651,-0.03210507,0.02368673,-0.2956132,0.50293857,0.2915841,-0.02362669,0.16917036,0.49551827,0.40753883,0.116184056,0.2657555,0.39892003,0.4344985,0.31785864,0.2476292,-0.042937096,-0.12825415,-0.027574291,-0.009599134,-0.18726455,0.021419164,-0.19275317,-0.17440565,-0.16707753,-0.03520236,0.11553971,0.078622214,-0.01970566,0.23282419,0.24004626,-0.1428018,0.029043851,0.21346277,-0.15004255,0.2747779,0.40272182,0.25615886,0.4768599,0.27817228,0.29215786,0.13091832,0.11198168,0.2812804,-0.05565213,-0.13720419,-0.26978838,-0.39666978,-0.1895038,0.04097523,-0.038920723,-0.09933696,0.03472785,0.004084657,0.062035013,0.014227851,0.009683537,0.09415406,-0.15215337,-0.18016195,-0.5029783,-0.26069048,-0.09837302,0.2952612,-0.038527325,-0.11785884,0.07097638,0.072484635,-0.14312847,-0.10329461,0.041968297,-0.099408455,-0.14705865,-0.10775882,-0.08820462,-0.17564246,-0.17684698,-0.15144047,-0.19130515,-0.0041516805,-0.10064639,0.0051980107,0.09805916,-0.08686309,-0.16982687,-0.20171948,-0.22534929,-0.24303669,-0.72501034,-0.15771307,-0.041061338,0.054196104,-0.30187896,-0.13589108,-0.2033969,-0.1949395,-0.25760916,-0.068486035,-0.043560803,-0.045020394,0.08548163,0.08744601,-0.03210068,-0.33398458,-0.17237408,0.021754386,-0.09506826,-0.039968513,-0.16221528,-0.060783204,0.077488005,-0.089860916,-0.0058579394,-0.010387305,-0.2496524,-0.3120769,-0.40798742,-0.17050704,0.026100293,-0.0668551,0.04781683,-0.3016821,-0.27425542,-0.27252948,-0.19908652,-0.1022107,0.21529093,0.15133446,0.11373093,-0.04800983,-0.043636993,-0.21334328,-0.20749712,-0.075185835,-0.16772918,-0.22377284,-0.14026786,-0.03478001,-0.09942401,-0.17762712,-0.1716339,-0.07502837,-0.3268639,-0.4621345,-0.53680015,-0.26694715,-0.004902092,0.077618346,-0.034421146,-0.35082343,-0.33504808,-0.19974487,-0.15710357,-0.015740916,0.30641934,0.26440609,0.09460719,0.0018897388,-0.058871537,-0.054102283,-0.10656123,-0.11637937,-0.2703308,-0.3014834,-0.200665,-0.13600169,-0.0794298,-0.09331089,0.15684639,0.01712522,0.04448641,-0.12986623,-0.008396746,0.15806225,0.23907097,0.108978756,0.2777039,-0.24937393,-0.019657793,-0.122692265,-0.19509849,-0.11412138,-0.15008965,-0.05692014,-0.12399421,-0.12268645,-0.043566298,-0.009873014,-0.1915613,-0.2642999,-0.24828796,-0.48080865,-0.37222168,-0.05465257,0.20452267,0.12928507,0.09415884,-0.14747061,-0.17130186,-0.52257055,0.1880506,-0.4094354,-0.022156747,0.3749247,0.016369637,0.005672703,-0.11567464,0.0006731227,0.05501966,-0.09856568,-0.0974944,-0.27883866,-0.2782174,-0.2910222,-0.14304996,0.06959312,-0.18392077,-0.34812418,-0.39400804,-0.52486414,-0.28742465,0.013965624,0.02557227,0.18748797,-0.17476328,-0.29148647,-0.118327886,-0.7934522,-0.6223811,-0.2716466,-0.020915162,0.29643604,-0.090842076,-0.13608637,-0.016539004,-0.012186663,0.06146644,0.0005319102,-0.19547272,-0.088581696,-0.08906489,-0.1839909,0.03010736,0.08807354,-0.09767104,-0.10653944,-0.1207758,0.018968403,-0.0740473,0.06428886,-0.040047206,0.13027424,-0.038826454,-0.05650201,-0.16277277,-0.21147102,-0.33583644,0.027205382,-0.027511645,-0.16718344,-0.3145065,-0.10173286,0.12248217,0.049393103,0.10016947,0.18487604,0.08821334,0.16326159,-0.012893591,0.08658227,0.19963896,0.3287281,0.24301635,0.443868,0.51491725,0.43406853,0.11566118,-0.027066931,-0.029037476,0.021767523,0.24089924,0.15426582,0.2383113,-0.17606114,0.20207128,-0.03532742,-0.0008158158,-0.06917411,-0.23206256,-0.20580505,0.23019443,-0.018858306,0.14721672,0.30148777,0.3831814,0.14911698,0.13485923,0.36218184,0.38759214,0.35011697,0.5793252,0.7497311,0.8676374,0.7581564,0.31367308,0.10002715,-0.17012598,-0.017158471,0.26071426,0.42749307,0.32032162,0.003955583,0.3491085,0.074537784,-0.09231157,0.02749633,-0.26096255,-0.2433425,0.24008808,-0.08506235,0.028120479,0.46809477,0.47243202,0.34540388,0.34613383,0.42289215,0.5456382,0.4887648,0.7340652,1.0619214,1.0413857,1.0792553,0.47355416,0.39521363,-0.024572268,-0.08642857,-0.029865881,0.06962899,0.3756179,-0.016268285,0.09281051,-0.017760787,0.058897916,-0.017933538,-0.05536808,0.14167511,0.36153558,0.38205,0.35699674,0.47918022,0.37767857,0.61027896,0.5675872,0.7365828,0.6139381,0.6763361,0.7552829,0.7550853,0.87981254,0.70813763,0.2923465,0.33484662,0.059476048,-0.24378541,-0.012873594,0.54679215,0.06690593,-0.18077837,-0.23192328,-0.06504404,0.012486805,-0.05749613,-0.0642745,0.2619969,0.32189333,0.29484746,0.13774951,0.48140395,0.579969,0.58199596,0.6280716,0.5709849,0.19235432,0.4634019,0.6987058,0.45073757,0.3448189,0.46944138,0.4715302,0.5901059,0.63050705,0.51232356,0.5191203,0.22866806,0.1160398,-0.18989812,-0.1063374,-0.042985007,-0.03834208,-0.04888436,0.036713816,-0.04299288,0.099648245,0.2666979,0.21531244,0.076795526,0.23505299,0.22323719,0.28878444,0.26373315,0.4267978,0.40757972,0.2525187,0.14935553,0.15375504,-0.008361479,-0.034074374,0.1097009,0.16788192,0.21840264,0.27455562,0.23060809,0.32575274,-0.060761873,0.042536594,-0.032855336,0.0080537535,-0.041840438,-0.047600098,-0.017394196,-0.015683265,-0.032702565,-0.08005369,-0.045300603,-0.012696686,-0.02409511,0.27466434,0.06680557,0.010539212,0.10055936,-0.015959108,0.028177854,0.08815597,-0.10338506,0.066326,0.31640807,0.19514318,0.26376116,0.44447973,0.18258224,-0.11809174,0.0070886007,0.02802541,0.085964486,0.03461422,0.026621906,-0.072734885,0.08174291,-0.020162305,-0.016566023,-0.10162307,-0.039212715,-0.0036297885,-0.02054474,-0.016776998,-0.024956627,0.28952783,0.017358271,-0.048784688,0.011661651,-0.019845208,-0.00410771,0.049156755,-0.007857439,0.034269042,-0.011193632,0.005598714,-0.0065575177,-0.035990905,-0.07130518,-0.0075157117,0.045165654,0.04929302,0.03621164,0.0040540453,-0.003988685,-0.058598105,0.07164749,0.26211473,0.18002059,0.19677784,0.27334023,0.27668503,0.092762664,0.10314061,0.35453376,-0.16313586,0.048230942,0.5378286,0.53765666,0.31504184,0.21238399,0.23827694,0.33040106,0.30801243,0.3198268,0.013490121,-0.046257008,-0.04669028,-0.11469411,0.03647542,0.040193383,-0.013280579,0.055922564,0.10641341,-0.04950405,0.16461669,0.2850222,0.31454617,0.15804996,0.12687704,0.33240172,-0.16695286,-0.52594095,-0.5155833,-0.571006,-0.2901897,-0.14827092,-0.012520957,0.13381906,0.03210474,-0.00071337784,-0.054133773,0.31999552,-0.009700547,-0.07338112,0.024472719,-0.0064349207,-0.09387839,0.11556627,-0.18104622,0.13359945,0.057807874,0.19709252,0.14447519,0.4250849,0.51785576,-0.029348886,0.20775117,0.4663647,0.47489506,0.21216562,0.13374205,-0.095177084,0.03673554,0.19551235,0.2052041,0.10276344,0.45753303,0.10040515,-0.21326801,-0.21716674,0.1445899,0.14937423,-0.12899753,-0.11665526,0.011182925,-0.03205439,-0.35874474,0.32349208,-0.052958928,-0.22424795,-0.045476984,0.16613947,0.16683118,-0.0063621537,0.12826318,0.2578195,0.17548758,0.03482933,0.06756582,0.15498517,-0.06772814,-0.026783591,0.19694655,0.062033396,-0.10556031,0.08888129,0.11023855,0.21393628,0.25570115,0.46338522,-0.009363496,-0.18684003,-0.02535133,-0.024164123,-0.15272936,0.524744,0.19146179,-0.12073994,-0.07159984,-0.071181215,-0.18454923,-0.2060749,-0.021967832,-0.11016459,-0.041924354,0.08051033,0.120459706,0.1991584,0.18406111,0.18452008,0.15273553,0.14106828,0.16838317,-0.013743543,0.10058448,0.05464791,0.17048179,0.14449589,-0.07035093,-0.19309245,0.032438286,0.2287817,-0.008044075,0.09288903,0.36472473,0.15287443,-0.023265367,-0.4584389,-0.37120485,-0.1510161,-0.042077567,-0.07734201,-0.13162956,0.055005077,0.12345831,0.05000027,0.19173749,0.18761027,0.36239707,0.20754115,0.00013574953,-0.11571806,0.017427957,-0.0008898309,0.29230797,0.24550633,0.2484713,-0.2211347,0.09815392,0.28502825,-0.2811073,0.07819981,0.1608599,0.15050298,-0.18433098,-0.2629075,-0.09879106,-0.052279726,0.060776494,0.053243265,-0.02804247,-0.09149707,0.0077706273,-0.030324364,-0.00444578,0.077712946,0.13689034,0.17343983,-0.02829534,-0.09286746,-0.0928014,-0.13068601,0.12144011,0.06841686,-0.0013144015,0.13458703,0.2094022,0.13271458,-0.009032494,0.18345906,0.0119284075,-0.15154777,-0.26186845,-0.11087042,-0.11864982,-0.061454467,-0.08518382,0.04551766,-0.13708454,-0.17906217,-0.20047891,-0.21420999,0.10775571,0.06957989,0.18689978,0.22360717,0.108253606,0.06485594,0.06525413,-0.0063296547,-0.09907734,-0.22666481,-0.17037174,0.3135527,0.050653536,-0.1538896,0.12347069,-0.01120799,0.022366965,-0.13308671,-0.13040257,0.078749485,-0.01883863,-0.054023996,-0.22665083,-0.17079884,-0.031076109,-0.11081246,-0.036847256,-0.24501328,-0.17109908,0.042276543,0.14977959,0.33578566,0.41007915,0.20395608,0.0767958,0.026983196,-0.11833764,-0.14857444,0.07458687,0.082143724,0.012242601,-0.36074612,0.097634755,0.29165632,0.19975138,-0.04494541,0.03286295,-0.0076469006,0.04690552,-0.11947479,-0.11025443,-0.10769186,-0.06985076,0.088633575,0.11874148,-0.14035366,-0.056407023,0.00452191,0.03580541,0.32351822,0.5533823,0.14113277,-0.0550367,0.032122783,0.13873233,0.30135843,0.34425372,-0.13169485,-0.017111538,0.039417207,0.057793003,0.35770303,0.22434624,0.030879067,-0.108863935,-0.2520103,-0.15298006,-0.041460555,-0.01179592,0.017179407,-0.12275541,-0.083236635,-0.039498545,-0.2626006,-0.15635727,-0.21020135,0.06421187,0.19421326,0.2998005,0.19274276,0.09781076,0.40916747,0.59791803,0.67539734,0.20293495,0.059517253,-0.118518725,-0.17604572,-0.2876355,0.03440393,-0.07410633,-0.104330085,0.034198284,-0.13249396,0.01868424,0.057371322,0.28517357,0.04570928,0.042898066,0.06309069,0.17346007,-0.16544369,-0.35187882,-0.37672758,-0.21396834,0.027141297,-0.06507544,-0.11824977,0.10066151,0.29388765,0.36795908,0.54907817,0.3941883,0.4359855,0.07756435,0.07347609,0.033887733,0.15872964,-0.17844278,-0.13969094,0.20571926,0.04600631,-0.008848298,0.18647228,0.2558448,0.039389707,0.24805793,0.23994276,0.12791649,-0.2272373,-0.36233807,-0.26840642,-0.091867596,-0.09739294,-0.012327101,0.09872308,0.010636166,0.29374266,0.2943042,-0.07042355,0.23446856,0.01245793,0.22017583,0.060511675,0.137709,-0.08176753,-0.06603957,0.018087637,0.14119197,0.06301585,0.18565378,0.2413498,0.22154604,0.13905093,0.17324845,0.026586037,-0.023478102,-0.16006178,-0.33348402,-0.1919065,-0.09950039,-0.06045693,0.33218753,0.41844723,0.3836084,0.41890976,0.27762994,-0.43887785,0.09204876,-0.04825162,0.26676792,0.06404548,-0.06935341,-0.35009444,-0.013245912,0.5797586,0.38806596,0.26821604,0.4379521,0.4860115,0.20583493,-0.12130123,-0.14024146,-0.3196322,-0.20510945,-0.12858635,-0.1711271,-0.15424795,-0.03243793,0.12763551,0.47486386,0.78358984,0.65352166,0.4804088,0.43279687,-0.12639394,-0.3045497,-0.05109668,-0.17032501,0.077526905,0.07386251,-0.06625751,-0.071274176,0.69272923,0.6522259,0.47695172,0.6891201,0.5206009,-0.07223935,-0.36695942,-0.11258205,-0.089037396,-0.31333596,-0.17921221,-0.14561126,0.031625114,0.17007242,0.34548432,0.53328973,0.8131649,0.8034722,0.46975845,0.24425071,-0.11411781,-0.08227959,0.0083960565,0.046832576,0.054496173,0.073432714,0.25741357,0.44879732,0.69557095,0.90966356,0.9132144,0.5672473,0.03597873,-0.3016617,-0.32346442,-0.3314393,-0.15088405,-0.1400725,-0.075342044,0.18865904,0.3077641,0.13641088,0.48780394,0.19150373,0.37217143,0.26253143,0.20704955,-0.35663837,-0.59154034,-0.3635478,0.19172291,0.19417515,0.04750111,0.20597635,0.3073044,0.5604858,0.8813963,0.7330179,0.76677513,0.442386,-0.23849751,-0.37165555,-0.23444897,-0.13201648,-0.15477912,0.0003101654,0.077295505,0.30476952,0.27228162,0.3437944,0.09945221,0.063586116,0.18514428,0.067340754,0.17100611,-0.345237,-0.7678689,-0.5752337,-0.27340883,-0.04165893,0.21855904,0.36841083,0.51669526,0.75439644,0.9138681,0.32491553,0.14471395,0.019800682,-0.25563735,-0.2732659,-0.17013611,-0.02964246,0.026750363,-0.08554334,0.08451495,0.16484103,0.15747271,0.09408166,-0.024038328,0.044685286,0.16315602,-0.051127918,-0.007575757,-0.35103288,-0.54050136,-0.5673506,-0.17464563,-0.022681044,0.28551328,0.42004523,0.6698027,0.7011438,0.7422056,0.2670316,0.051913906,-0.07675722,-0.0856734,-0.14410508,-0.111744225,-0.029131368,0.1887251,0.16388379,0.17986792,-0.079094246,-0.030920217,0.085796185,-0.05106277,0.19104561,-0.015316709,0.08670996,0.0050473064,-0.3841738,-0.18409713,-0.24926732,-0.0037619476,0.07083937,0.027169386,0.5270566,0.33833936,0.2960062,0.21538763,0.045497164,-0.07789726,-0.08756067,-0.27550632,-0.17205504,-0.012089511,0.2422936,0.09890764,0.05715839,0.18827549,0.14420608,-0.07931073,-0.07374553,0.10890055,0.10720388,-0.20865731,0.1125417,-0.07929837,-0.21456772,-0.021474933,0.30066538,-0.06166603,0.050684683,0.10056764,0.37895238,0.031737722,0.013726099,-0.07868911,0.06530457,0.10976584,-0.056171123,-0.019272171,0.045393914,0.15461552,0.15375379,0.10311928,0.10235078,-0.030018251,0.05853469,0.08638447,0.026985573,0.07948777,0.011714296,-0.22861844,-0.09287538,0.05194271,0.100246914,0.11390847,0.35565343,0.022880515,0.053159952,-0.023495706,0.34454337,0.31724104,0.16513352,0.27062944,0.39814043,0.28742298,0.14235602,0.18121342,0.14723258,0.19969927,0.12513135,-0.03163943,0.041864514,0.027430426,-0.03459647,0.021449585,-0.13628416,-0.026704075,-0.1285922,-0.44187745,-0.1687475,0.12513016,0.21443474,0.24578491,0.38251555,0.025762247,0.086865276,0.039335765,0.12887993,0.5057103,0.30190888,0.17322549,0.18984996,0.22670658,0.25281432,0.2537505,0.037818152,0.15200214,0.18492249,0.18627264,0.25061643,0.056527227,0.059566237,0.32562006,0.19545977,-0.027097467,-0.2957805,-0.23712072,-0.01710628,0.105596915,0.27180338,-0.352968,0.08119014,0.008452816,0.033132836,0.034797337,0.1185234,-0.14233543,-0.055254877,0.1438353,0.013513233,0.035869684,0.098374866,0.106652915,0.19218943,0.2031581,0.49607265,0.22915494,-0.15511811,-0.28618485,-0.10687644,0.0007691587,0.108685814,0.2413348,-0.0075983284,-0.062285032,0.3181558,0.3698554,0.29901493,0.120457664,0.1441978,0.0096151875,-0.08666285,0.035717074,-0.04989601,0.03639835,-0.25283247,-0.35929006,-0.26859057,-0.19841686,-0.05253417,-0.29069173,-0.28377646,0.005151111,0.057522397,0.00013620513,-0.4084269,-0.33222798,-0.20883462,-0.41351843,-0.2625183,-0.04680553,-0.16225056,-0.2525071,-0.0612789,0.11190382,-0.12554853,-0.118124485,0.050312933,-0.034054365,0.029325394,-0.0040229964,-0.053571858,-0.02353113,0.041757263,0.10575133,-0.023193795,0.077811696,-0.008609949,0.1677933,0.25582734,0.09148295,0.12981887,0.057389103,-0.15299907,0.021360867,0.0039198017,-0.05932287,-0.27163783,-0.37005663,-0.2754416,-0.4619618,-0.5033234,-0.20374376,-0.016545476,0.054983553,-0.023672706,0.07815746,-0.0060224244,-0.035736926,-0.005439117,0.06765852,0.035416782,-0.032473266,0.03244156,